717 64
37 0.035282657 0.0051046256 0.0631156 0.015736556 -0.07749663 -0.036471076 -0.009144347 0.15573427 -0.12701887 -0.26867065 -0.0064859577 0.12852922 -0.09768228 0.11148431 0.09473167 -0.17090367 0.08507865 -0.043400772 0.12812096 0.24428974 -0.024828397 -0.042433906 -0.14435878 -0.05506223 -0.057797797 -0.17470181 -0.10852927 -0.10637132 0.45871654 -0.05372639 -0.011988797 -0.17033553 0.08360122 -0.08966065 -0.11810566 0.07587123 -0.03018021 0.37661135 -0.12363072 0.22072487 0.114372775 -0.0961503 -0.13096836 0.033739246 0.008116834 -0.16809608 -0.021896483 -0.40681094 -0.2541999 0.051570315 0.15905106 -0.15357877 -0.40533507 -0.119192965 0.15017304 -0.34581685 -0.14815637 -0.459989 -0.012576559 0.66363704 -0.025083069 0.1764726 0.29175782 0.019310046
699 0.004127257 0.061230965 0.07081272 -0.0024347876 0.030303387 -0.071234 0.02642808 -0.012430703 -0.16227077 -0.3609922 0.0012509004 -0.006454365 0.09582392 -0.0070056096 -0.0015521353 -0.016487958 0.22265339 0.026124952 0.068566665 0.18448167 -0.04293066 -0.08948629 -0.035567366 -0.04641503 -0.13811469 -0.17651334 -0.110208176 0.021087242 0.42363802 0.04494814 0.19107568 -0.18476284 0.2070316 -0.07235632 -0.12393671 0.20414919 0.05004174 0.23627067 -0.24021164 0.14164232 0.09190643 -0.12362367 -0.11595665 0.098850876 -0.024848778 -0.23889856 0.07601246 -0.4584959 -0.2727838 -0.1372739 0.04511397 -0.18102697 -0.39990467 -0.047852688 0.14267795 -0.3905804 -0.17838013 -0.531174 0.13532883 0.551967 -0.15010247 0.060585715 0.2974937 0.10390092
264 -0.024080072 0.05498541 0.017448606 -0.20171514 -0.18745543 0.08749891 0.16081645 0.16355182 -0.12673607 -0.17443952 -0.03882021 0.048188545 0.04861663 0.07108394 -0.10599566 -0.061055258 0.14515914 0.06778475 0.013498835 0.050180443 0.04398324 -0.08724548 0.07473311 -0.07295884 -0.08498744 -0.22042026 -0.12124817 -0.024573289 0.52866334 -0.080102585 0.014289382 0.0133437235 0.061722483 -0.0947765 -0.2220817 0.15098917 -0.08226859 0.2315853 -0.19985564 0.29653794 0.18034095 -0.11247504 -0.14364856 -0.03828192 0.11583739 -0.2158755 0.017399667 -0.3921274 -0.26701188 -0.10133872 0.048639603 -0.07869727 -0.38559848 -0.11383566 0.071610436 -0.2764674 -0.20942567 -0.39356002 0.15213138 0.63662726 -0.13071227 0.11409325 0.35781544 -0.0552349
144 0.019111726 0.06131 -0.08366662 -0.14099497 -0.11142514 -0.15289941 0.0751319 -0.08219599 -0.072531484 -0.28163782 -0.07209906 0.08297623 0.04088905 0.01786908 -0.009141387 0.013384145 0.18187678 -0.048662435 0.21205258 0.20403658 -0.08496202 -0.068213455 0.016409284 0.09539713 0.023190243 -0.31637618 -0.20657136 -0.058743507 0.38320556 -0.093739696 0.06777082 -0.07842114 -0.09546175 0.019375926 -0.1877627 0.1288359 0.006115537 0.25593776 -0.22619352 0.1929704 -0.028221667 -0.07205301 -0.105096586 -0.05039494 -0.05462047 -0.21404432 -0.011521393 -0.3980674 -0.24946882 0.11559813 0.11035415 -0.14620557 -0.40451947 -0.07613919 0.14751509 -0.36942706 -0.19812433 -0.51556647 0.10809187 0.61922836 -0.13542174 0.10496911 0.35075238 -0.0012980768
69 -0.13191622 0.039755445 -0.006489445 -0.112122856 -0.105184965 -0.03802218 0.017546713 -0.035156287 -0.07099884 -0.38438424 -0.07657788 0.17991394 0.048621565 0.11277993 0.10461781 -0.18479334 0.10608233 -0.043864682 0.17234775 0.09298193 0.0015114857 -0.035817713 -0.025241977 0.03927056 -0.025191335 -0.3211368 -0.06943919 0.050766073 0.48244527 -0.25006813 0.104451686 -0.08601505 -0.04966968 -0.01435965 -0.12704046 0.25207612 -0.067850545 0.21464053 -0.15424845 0.23344858 0.110993244 -0.11954698 0.0041425726 -0.003077117 0.016657744 -0.23761222 0.02416665 -0.40036777 -0.26624757 0.0400904 0.06283854 -0.14564347 -0.30996606 0.058568556 0.0769777 -0.44746065 -0.24207357 -0.4175498 0.18018275 0.5547345 -0.122693606 0.105043285 0.35967657 0.109945826
59 0.03972484 0.005331173 -0.086715296 -0.19369592 -0.07877967 0.044009328 0.042478394 0.02785752 -0.028172718 -0.37623075 0.0012201323 0.12624033 -0.085541725 0.080954105 0.13814627 -0.08825598 0.23031224 0.103543185 0.14954615 0.080676906 -0.17873019 0.014694018 -0.03249291 0.012552198 0.026372576 -0.16666307 -0.046615414 -0.046108063 0.4117417 -0.16348645 -0.0026291516 -0.1242689 0.028065842 0.076414205 -0.07810414 0.17757085 -0.19021755 0.2962499 -0.20179738 0.12937139 0.10589803 -0.029868957 -0.06863988 -0.07225359 0.016773958 -0.22977829 -0.06570742 -0.42324603 -0.31044465 0.027432429 0.1832395 -0.042078946 -0.22341256 0.034202315 0.10877674 -0.3994785 -0.25656152 -0.5235642 0.16090332 0.6410897 0.009236001 0.15320127 0.2697053 -0.023611682
116 0.110039964 0.06745189 -0.033670355 -0.16790971 -0.13470456 -0.10922939 0.06112244 0.11721636 -0.14726584 -0.1703937 0.12633692 0.04801407 0.10510963 -0.04228677 0.09606394 -0.0437366 0.19659975 0.029206056 0.11750447 0.13570674 -0.08180758 -0.052287962 -0.15236188 0.06596144 -0.030187543 -0.24081206 -0.0028740428 -0.1308318 0.46316248 -0.07476234 0.011188261 -0.06328399 0.09548883 -0.049330503 -0.1476712 0.11753088 -0.013302643 0.28631926 -0.2680131 0.2625667 0.103846714 -0.07902302 -0.18339933 -0.031099353 0.048598222 -0.2262048 -0.010707828 -0.36781475 -0.27652022 -0.1032662 0.0959088 -0.15195104 -0.39753583 -0.03319829 0.12960438 -0.45833054 -0.23471165 -0.4334895 0.09621664 0.5809455 -0.12588193 0.0138407415 0.22686529 -0.006969279
17 -0.06748081 0.08306779 -0.031735078 -0.2163289 -0.14871548 -0.008443757 0.03826244 0.15265419 -0.25079456 -0.29351658 0.08402226 0.05415817 -0.12906338 0.062783614 0.11509024 -0.12047699 0.12382418 0.01988536 -0.0638577 0.09663631 0.016591674 0.02432417 0.084245004 0.043364044 -0.021527039 -0.080343716 -0.18949829 -0.030524833 0.5093846 -0.12192077 -0.025736108 -0.15482844 0.02336446 -0.031069083 -0.19416562 0.1838035 0.09880825 0.2887851 -0.25008264 0.07048732 0.082622066 -0.1198241 -0.096725784 -0.21765171 0.07903364 -0.24033564 0.063150145 -0.3921406 -0.2620406 -0.039061435 0.15590496 -0.112388685 -0.31087506 -0.15484113 0.100188434 -0.4036567 -0.22531706 -0.39229378 0.08185524 0.6169599 -0.02223508 -0.0544927 0.35330713 -0.010580474
526 0.057400957 0.0008986283 -0.08463501 -0.11388627 -0.20140336 0.043468386 0.12092279 0.06996268 -0.13297954 -0.2596537 0.057438675 0.048224986 0.012999683 0.08090388 -0.032134317 -0.04712269 0.075025715 0.04741205 0.08451893 0.1285859 0.043924645 -0.08068769 0.09240707 -0.039138157 -0.037835196 -0.20063859 -0.14365752 -0.04432574 0.45492116 -0.085656255 0.049820274 -0.02514544 0.057283834 -0.1023692 -0.12825674 0.050048187 -0.050518725 0.15833804 -0.18512866 0.14844416 0.13884576 -0.10054215 -0.10191543 -0.04932402 0.100229084 -0.33826885 -0.0344295 -0.45608926 -0.20037344 -0.1276017 0.016538614 -0.08394356 -0.2912759 -0.08053946 0.040895365 -0.39318404 -0.17558138 -0.5083626 0.097638495 0.63960904 -0.044984777 0.16642717 0.3531578 -0.030380469
202 0.06155379 0.18831365 -0.051658362 -0.08280558 -0.16761206 0.060214084 0.029150456 0.08180595 -0.19021487 -0.18749191 0.030507537 0.00290936 0.030417128 0.07314517 0.005677467 -0.03538013 0.2803101 0.015725048 0.10788174 0.20959501 0.03837809 -0.048879635 -0.07968056 -0.02955535 0.12690581 -0.2046693 -0.109943755 0.09277824 0.48602822 -0.20226124 0.04737852 -0.05425664 0.043953255 -0.13025472 -0.16759117 0.07147282 -0.009332529 0.21374208 -0.25013426 0.20021862 0.0570331 0.04733139 -0.15936866 -0.038671374 0.047771662 -0.31560326 0.021007119 -0.38465068 -0.18145348 -0.19711968 0.08514318 -0.09607218 -0.24138555 -0.14081465 0.090064906 -0.3414857 -0.1899082 -0.46617246 0.12580138 0.6182345 -0.033100944 0.11338603 0.2943408 -0.043694884
122 -0.021521725 0.0641834 -0.07437398 -0.018572442 -0.12614995 -0.12946908 0.014558966 0.09265733 -0.16798007 -0.23178656 0.03078684 0.18005289 0.05994627 0.01805843 -0.00785179 -0.096621595 0.17952089 -0.07323249 0.051910188 0.17986654 0.06797264 -0.139773 0.0060429033 -0.10180178 -0.024649829 -0.15264925 -0.13028398 -0.05425147 0.36359662 -0.15582637 0.054655373 -0.109478526 0.16593769 -0.025657034 -0.051983725 0.18017983 0.04130925 0.22324604 -0.1608893 0.15856262 0.16347918 -0.08298015 -0.14790925 -0.09828737 0.17378472 -0.18708338 0.02277881 -0.49512744 -0.28751346 -0.12214651 0.093776174 -0.13945107 -0.40838608 -0.09627504 -0.006760809 -0.37390807 -0.16337928 -0.5138519 0.045504928 0.5515856 -0.062678024 0.1483457 0.27312204 -0.06706136
12 0.10028391 0.05760762 -0.018962163 -0.05359341 -0.16435798 -0.037446633 0.24110112 0.06163823 -0.17373194 -0.20007211 -0.08720236 0.10400162 0.07844021 0.0406018 0.03299762 -0.17044841 0.15673043 0.09431693 0.026436143 0.05366759 -0.027663706 -0.052913826 -0.06486824 -0.0115437005 -0.21015348 -0.112334035 -0.11057158 -0.11536777 0.42705873 -0.24511823 0.05303824 -0.16726361 0.0338156 -0.09397138 -0.053503923 0.10705899 0.017728837 0.21188141 -0.27004382 0.2125187 0.1433183 -0.11733859 -0.1410997 -0.05131515 0.1359266 -0.17535819 -0.037400935 -0.39846233 -0.30010846 -0.107307725 0.123210154 -0.06427491 -0.27182913 -0.086811125 0.17436272 -0.43986848 -0.20600057 -0.4822022 0.08769126 0.6094417 -0.14393018 0.035924103 0.26421604 0.046975344
31 0.05762312 0.09089456 -0.059480313 -0.0121357525 0.0014760375 -0.11843343 0.0591646 0.12771064 -0.1939602 -0.2031075 0.02725833 0.0867891 0.041868567 0.041433793 0.037494052 -0.051252104 0.21756896 0.100773774 0.13199268 0.17410648 0.0059949476 -0.07654751 -0.007271209 -0.056923054 -0.030332146 -0.24078998 -0.19683324 0.0162793 0.49571064 -0.13704157 -0.0008390587 0.11144696 0.024981063 -0.086900264 -0.15809323 0.020891106 -0.0053829 0.27535003 -0.23363304 0.13481976 0.08523128 -0.06901311 -0.21969725 -0.031709865 -0.048363652 -0.241796 -0.023675893 -0.520241 -0.29897854 -0.06330083 0.18130876 -0.07146154 -0.22969191 -0.10197728 0.07036945 -0.40180713 -0.13615035 -0.46372065 0.04397725 0.53343594 0.024199806 0.06370397 0.3851294 -0.09929416
112 -0.011555446 0.09962539 -0.003084595 -0.16717148 -0.10012277 -0.061243866 0.09231931 0.041787073 -0.13469142 -0.31683913 -0.04305571 -0.022589594 -0.021585958 0.051254958 0.010269329 -0.19201063 0.03663371 -0.0935119 0.24506843 0.1387937 0.07600296 -0.1138487 -0.031527292 -0.05654618 -0.046921145 -0.08507434 -0.14224082 -0.1041318 0.55313575 -0.26234904 0.070162855 -0.13047118 0.1011458 -0.012315177 -0.10394753 0.21691394 0.020442376 0.25836927 -0.27581516 0.11328082 0.104710735 -0.002124472 -0.20978321 0.05453872 -0.0072673834 -0.14786763 -0.027747193 -0.47929507 -0.2833978 -0.021550292 0.08878454 -0.009394837 -0.28942847 -0.0048370417 0.16027632 -0.29432774 -0.1740323 -0.43704617 0.057608295 0.5827607 -0.026011609 0.10147125 0.36015558 0.10961609
108 0.07647166 0.24239825 -0.19968517 -0.028332958 0.03649925 -0.14730294 0.060187295 0.04600735 -0.16492417 -0.17630377 -0.08540708 0.15123658 0.012201496 0.061522372 -0.057897966 -0.0074019497 0.17948575 -0.047297932 0.09815143 0.03030678 0.064479955 0.008760002 -0.08563821 0.047561087 -0.033229575 -0.18763807 -0.07139022 -0.00545682 0.32471776 -0.09283747 0.036423996 -0.015385751 0.060385883 -0.033230036 -0.05808975 0.13775213 -0.0466156 0.30243796 -0.27932665 0.23080818 -0.10633681 -0.042982057 -0.27973992 -0.10650094 0.050267786 -0.38834438 -0.016152317 -0.40174207 -0.27754402 -0.0681201 0.12093244 -0.21044289 -0.30425575 -0.2588551 0.045146782 -0.41781166 -0.11542015 -0.35503367 0.11116677 0.61414033 0.032202654 0.11153639 0.35721114 -0.10719406
528 -0.046474066 0.102046676 0.009751073 -0.054988645 -0.018904043 -0.057321038 0.12249796 0.08359001 -0.196804 -0.246502 0.1111195 0.041531168 -0.020319015 0.13533722 -0.094111376 -0.13821357 0.113734476 0.043791495 0.12325447 0.18199068 0.012188157 -0.003643741 0.043894865 0.12564044 -0.018828478 -0.18341905 -0.1456149 -0.02217159 0.49675676 -0.0984194 -0.05701096 -0.0352924 0.0311927 -0.009058519 -0.08574154 0.068678655 -0.0789642 0.17509598 -0.18681869 0.14099862 0.05619359 -0.038973793 -0.23704855 -0.08964415 0.25907537 -0.3101137 0.08104963 -0.48142132 -0.2849569 0.005509338 0.0014052177 -0.077513434 -0.35438183 -0.12613554 0.15324166 -0.3324993 -0.16392134 -0.37651578 -0.010035629 0.63197714 0.055632863 0.053271405 0.34464723 -0.1655789
24 -0.026936783 0.05937996 -0.06758753 -0.06400186 -0.010550396 0.08319308 0.1549426 0.20952989 -0.17213424 -0.1857817 0.13836685 0.06985662 -0.010542313 0.15007459 -0.15075077 0.011153978 0.14258261 0.072348066 0.009081736 0.1660733 -0.093202695 0.010138537 -0.0339941 -0.024729315 -0.13601771 -0.12574843 -0.12112535 0.03512136 0.4485454 -0.26831767 0.12046239 0.042508226 0.16246921 -0.10436934 -0.14310607 -0.047706217 0.062278412 0.23874682 -0.34240556 0.20002209 0.0006076027 -0.08808733 -0.20837136 -0.116646655 0.07483427 -0.31389505 -0.021901464 -0.36174428 -0.17566957 -0.20574217 0.0033004174 -0.06650056 -0.21378851 -0.10565434 -0.06885493 -0.35167196 -0.19701149 -0.5089303 0.021477018 0.66601986 0.034979347 0.20722277 0.33217007 0.030777695
32 0.03563221 0.051744323 0.100567706 -0.15403792 -0.104088895 -0.028391648 0.18982393 -0.001551686 -0.11250095 -0.36207342 0.11415208 0.037125595 0.055680327 0.010402885 -0.04161436 -0.15635538 0.075146526 -0.0018468353 0.1324069 0.17296205 0.032353677 -0.07304538 0.021344047 0.04312337 -0.021488635 -0.265344 -0.10293303 0.020959184 0.40297183 -0.011318634 0.14196157 -0.049930226 0.10411574 -0.092629544 -0.16455506 0.08823424 -0.13400415 0.16671865 -0.1814714 0.17444484 0.059495047 -0.074467584 -0.20922855 -0.10543177 -0.02217636 -0.218203 -0.03059602 -0.43754834 -0.23864385 -0.13051401 0.13186932 -0.140834 -0.3144591 -0.06421202 0.14090061 -0.31357962 -0.31243232 -0.47994202 0.10668299 0.6412873 -0.09986168 0.11250876 0.30194095 -0.08201839
71 -0.045975246 0.039799742 0.058917914 -0.09474761 -0.041484203 -0.06988281 0.16851254 0.15955608 -0.121578045 -0.30649686 0.1391019 0.12663707 0.043293968 0.09190583 -0.18207213 -0.06341542 0.23820493 -0.04084261 0.03382403 0.120972924 0.11148265 -0.07782289 -0.056938022 -0.0026634743 0.12678628 -0.18620114 -0.023141915 0.0024109602 0.48879713 -0.12824659 -0.0038724283 -0.15142246 0.09437724 0.043892074 -0.17634743 0.08494738 -0.1478457 0.27674082 -0.15303381 0.120386206 0.13031554 -0.047512576 -0.13293661 -0.115564585 -0.060368285 -0.27440166 0.004387699 -0.3728719 -0.24954651 -0.07669263 0.048497148 -0.03143384 -0.3082104 -0.000347169 -0.06952589 -0.4692527 -0.21715601 -0.5175378 0.06766997 0.6220007 -0.027963534 0.11566339 0.25025335 -0.05949778
47 -0.05016302 0.04355959 -0.06288461 -0.13561289 -0.059893943 -0.1044817 0.117394954 -0.048708983 -0.05019645 -0.26450092 -0.045105267 0.063990496 -0.06533181 0.14267617 0.14948782 -0.19811475 0.114158586 -0.14689693 0.2121582 -0.0114541175 -0.0950099 -0.06523651 -0.09777003 0.024451766 -0.0487398 -0.23017877 -0.03913139 0.081052884 0.2751708 -0.22408582 0.0131438505 -0.121686146 0.01070162 0.059204962 -0.09811245 0.21346428 0.064315885 0.22781073 -0.25443724 0.1561758 0.12628941 -0.14043653 -0.17720997 -0.12047459 -0.011216002 -0.17966326 0.03211685 -0.42697233 -0.23101848 -0.13101207 0.3316526 -0.12645918 -0.33394322 0.047120206 0.029763201 -0.28194046 -0.1772204 -0.4648698 0.034630522 0.76703143 -0.07905701 0.084911264 0.34785295 -0.017450219
330 0.071899444 0.023671206 0.067384385 -0.13191314 -0.1465335 -0.053945597 0.017069843 -0.007657933 -0.10763028 -0.3103014 -0.06638033 0.033622388 0.06536739 0.18844327 -0.052415192 -0.12758057 0.25738263 -0.18091507 0.310441 0.16162388 0.045048658 -0.08800192 0.05791112 0.06938034 -0.051848125 -0.19517286 -0.031378705 -0.06819819 0.3329916 -0.17290917 0.0750065 -0.23805864 -0.03376142 -0.14515606 -0.11008526 0.14162801 -0.042734127 0.24655516 -0.16337591 0.20715982 0.07893507 -0.08454282 -0.05420445 0.097796164 0.026328295 -0.22016905 -0.023727452 -0.32491928 -0.3719888 -0.08681474 0.04403149 -0.006322747 -0.31405923 -0.033418827 0.09101694 -0.37077034 -0.19900176 -0.4969852 0.15393947 0.6946175 -0.020195227 0.13557836 0.35179627 0.008531145
83 0.03285465 0.12807956 0.077030696 0.0020401736 0.012148307 -0.0073358584 0.124904186 0.0951441 -0.17449766 -0.14680503 0.08075957 0.1400884 -0.061076276 0.047306564 -0.07902176 -0.036654457 0.3364304 0.006159576 0.14451292 0.09657568 0.09323768 0.05591577 0.000785227 -0.060823195 -0.04941072 -0.26932207 -0.13521159 0.021284172 0.34060222 -0.14791116 -0.012547582 -0.031967856 0.101767175 -0.00091389386 -0.055459213 0.09874423 -0.037978146 0.21532366 -0.2631569 0.2079632 -0.0028934279 -0.03854449 -0.20439447 -0.08070004 0.1369924 -0.41168687 0.04999303 -0.45261022 -0.18614732 -0.14763513 0.028401272 -0.10539977 -0.23272415 -0.045770954 -0.0010433517 -0.37318936 -0.14454573 -0.57534087 0.016417738 0.63915306 0.01894914 0.1309914 0.22608641 -0.12545256
181 -0.047159657 -0.0059386077 -0.019252812 -0.2664634 -0.12496612 -0.11327159 -0.04081655 -0.044290926 -0.043474466 -0.39964518 -0.0008476409 0.13172527 0.12075361 0.12607236 0.10266313 -0.1177377 0.27622452 -0.08568794 0.14725007 0.17935126 -0.09861226 -0.06625926 -0.06209155 0.035678595 -0.005995342 -0.26311138 -0.0030136122 -0.13669392 0.3832964 -0.14894328 0.02559492 -0.19827314 -0.04704852 -0.006718542 -0.1398178 0.2139317 0.016842492 0.40225363 -0.20515181 0.17697164 0.1637285 -0.073513664 -0.04263605 0.123291925 0.055811696 -0.1786457 -0.09842147 -0.29598695 -0.26068223 -0.12046841 0.15018433 -0.038209606 -0.2859488 -0.04372336 0.13691564 -0.4324278 -0.041621767 -0.45723432 0.13213618 0.66618055 0.0031180119 0.08914191 0.35763377 0.033976596
54 0.10521754 0.061001245 -0.0804147 -0.12121621 -0.17069063 -0.12045336 0.07041103 -0.05986434 -0.23421817 -0.35761255 -0.006980104 0.14329493 0.107076846 0.12945293 0.08506997 -0.12612425 0.16841552 -0.1300385 0.22623499 0.17014755 -0.011596049 -0.08858229 -0.20673326 -0.07086262 0.038386196 -0.35055232 -0.073651515 0.0011012538 0.37151933 -0.13323908 0.21707362 -0.23590168 -0.09746803 0.06976721 -0.1511385 0.2712339 -0.17450204 0.34987912 -0.28849253 0.059197586 0.18722068 -0.04943072 -0.054419894 0.04036124 0.03995088 -0.09248974 0.10413908 -0.39859313 -0.26613358 -0.1318264 0.17474948 -0.09791765 -0.2782521 -0.14196174 0.13668647 -0.38377002 -0.16695262 -0.37926054 -0.06803028 0.60304224 -0.1149108 0.019127894 0.3116173 0.03380403
175 0.053264014 0.090722166 -0.061269123 -0.13880378 -0.16373539 -0.06321221 0.09346591 0.04977564 -0.17714071 -0.32331437 -0.10972804 0.08655046 -0.05763608 0.02064802 0.10363644 -0.05540346 0.08902851 -0.009001404 0.05143198 0.21393706 0.045286953 -0.050850846 -0.08686935 0.08155033 -0.08519605 -0.085877515 0.09774105 -0.11622771 0.4416888 -0.13737251 0.0652256 -0.10413826 -0.02595224 0.0016657653 -0.18211173 0.12477661 -0.07277364 0.20094015 -0.14290358 0.15387475 0.14805281 -0.18591872 -0.1277726 0.008799566 0.1402023 -0.27026552 -0.047078766 -0.5735422 -0.124248125 -0.026205622 0.1700893 -0.069006525 -0.29880977 -0.110443465 0.12949327 -0.3129465 -0.09541694 -0.36706477 0.14782518 0.75235695 -0.097155 0.087448426 0.30432767 -0.020444602
123 -0.12230452 -0.038048252 0.040438686 -0.09384131 -0.06544096 0.040793754 0.01462187 -0.052982785 -0.13374215 -0.33252466 0.0042514643 0.036058083 0.06925518 0.16448218 0.27067766 -0.16487645 0.12066587 -0.10563751 0.19216608 0.130092 -0.06277651 -0.12470058 -0.08102382 0.024749905 -0.015402605 -0.21508253 -0.11207094 0.05080831 0.5144446 -0.03986162 0.10201969 -0.08860357 0.035125416 -0.052253686 -0.060617 0.08160792 -0.068899974 0.30755422 -0.23258357 0.2178094 0.1545459 -0.07681872 -0.11145075 -0.02395493 -0.008170841 -0.20586611 0.003938904 -0.43653107 -0.23502399 -0.121050656 0.13624343 -0.03716932 -0.21031341 -0.15903749 -0.0148750935 -0.35993207 -0.21355939 -0.44624844 0.16105388 0.6473321 -0.0404091 0.14932954 0.34725863 0.023704633
27 -0.004195909 0.008489252 0.046240166 -0.054401137 -0.17980139 0.019320728 0.048181552 0.10480061 -0.08436461 -0.34129325 0.06451025 0.13745607 0.035913587 0.076701336 -0.05031932 -0.054939594 0.18943098 -5.1175386e-05 0.12307381 0.10173616 -0.011223241 0.022724742 -0.0006187679 0.072625816 -0.06314591 -0.20046356 -0.08510656 -0.02431012 0.4739665 -0.11153728 0.10423473 -0.04038366 0.12901632 -0.16618936 -0.11461099 0.10682057 0.002363738 0.2931551 -0.26827055 0.19030525 0.13395475 -0.023863062 -0.14620608 -0.019873643 -0.025395043 -0.2493901 -0.053240057 -0.34155816 -0.34455496 -0.097181074 0.06285187 -0.13025443 -0.28854293 -0.06436462 0.052058533 -0.4004517 -0.18526338 -0.43334657 0.17387779 0.63720536 -0.060735893 0.11482848 0.23566736 -0.022885507
7 -0.059117563 0.08154492 -0.091050394 -0.041487902 -0.11944531 -0.008880439 0.24098124 0.18697323 -0.11173135 -0.24790166 0.07577632 -0.0097737685 0.055973556 -0.038564064 -0.13781598 -0.068266615 0.16961785 -0.023001991 0.24385999 0.12272125 0.015130671 -0.076123826 -0.017900331 0.010542665 -0.09731638 -0.19334498 -0.18166147 -0.07304681 0.54754835 -0.10782038 0.12787445 -0.045545023 0.0632126 -0.018313011 -0.09799881 0.18008253 0.093729876 0.2464187 -0.2208014 0.0740343 0.08219778 -0.018661669 -0.16595502 -0.05746693 0.15694645 -0.3232401 0.124835566 -0.3826493 -0.14296608 -0.10605745 0.0111174425 -0.24354954 -0.18877718 -0.08755526 0.012644524 -0.37087733 -0.2731274 -0.3758619 -0.00050471205 0.6426858 -0.008506893 0.063062176 0.32339853 -0.064269386
62 -0.00096421473 0.10810098 0.12130474 -0.043016195 -0.047393113 -0.009566257 0.06287736 0.084230244 -0.189007 -0.3358977 -0.0049534542 0.09997666 -0.09543758 0.0028257878 -0.06921466 -0.07166552 0.17586203 -0.005623566 0.07148793 0.05050201 0.017392201 -0.035519645 0.0075119915 0.07582154 0.010665653 -0.24777025 -0.16192955 0.022455305 0.5528632 -0.1766396 0.077312134 -0.036955092 0.03141967 -0.17059042 -0.15848014 0.10181974 -0.058820076 0.20280688 -0.33310047 0.2531792 0.07990831 0.06666983 -0.26028022 -0.07260124 0.08953731 -0.2018807 0.090203546 -0.34598202 -0.22889544 -0.13605641 0.0840714 -0.14688043 -0.1733707 -0.17008199 -0.052289974 -0.39746073 -0.17343155 -0.42899343 0.0068322034 0.6291184 -0.03747939 0.19774875 0.20243135 -0.05118555
2 0.001585626 0.12193152 0.06185912 -0.09556775 -0.17835464 -0.035195727 0.12879744 0.12849548 -0.14238438 -0.24582072 -0.04340226 -0.00075401436 -0.07681722 0.115085006 -0.029982822 -0.034354147 0.123941034 -0.0104528 0.17291802 0.18861015 -0.028381811 -0.00037428847 -0.003034574 -0.040246602 0.0632658 -0.094963826 -0.025192497 -0.054863986 0.5196162 -0.071888424 -0.0021417597 0.0018403907 0.017983058 -0.030151855 -0.21129137 0.116210245 -0.14446789 0.30118752 -0.21421649 0.11698686 0.11791443 0.08657048 -0.191322 -0.042945676 0.058390286 -0.36866903 0.016993986 -0.44808918 -0.256761 -0.1562153 0.16276085 -0.10222058 -0.323569 -0.13289462 -0.053982295 -0.34970978 -0.12530307 -0.4440889 0.08421813 0.58775985 -0.09873935 0.090892814 0.3035234 -0.099659264
146 -0.010992819 0.10765385 -0.17647044 -0.0077146813 -0.040345293 -0.08421254 0.09730345 0.21465132 -0.040898334 -0.09739583 0.07460014 0.119725615 -0.11991513 0.0682289 -0.051601753 0.10882963 0.16090427 0.076640435 0.037792288 0.11503186 -0.033067923 0.037156038 0.1268431 -0.05205527 -0.022248195 -0.0016512506 -0.16563758 0.10504232 0.4994608 -0.08361694 -0.01140425 -0.14935862 -0.003090139 -0.07758412 -0.041844252 0.12587512 -0.14726467 0.23595817 -0.24544963 0.22463363 0.10895223 -0.05844832 -0.2934069 -0.056696307 0.108288966 -0.29032382 -0.09163035 -0.37964475 -0.2769839 -0.12837508 -0.06591777 -0.14061613 -0.16280694 -0.085323215 -0.05971991 -0.35789123 -0.30908304 -0.4714168 0.061323557 0.6271935 -0.15272592 0.14141957 0.48031747 0.052922715
214 0.08514407 0.1687905 -0.12508482 0.0327432 -0.015612119 0.079898134 0.13976751 0.13817164 -0.31877875 -0.17725305 0.08072165 0.1824027 -0.08929941 0.11424583 0.012894475 -0.03830694 0.30818912 0.044917166 0.054241665 0.09778305 -0.07991303 -0.17906912 0.017179122 0.08337488 -0.026314097 -0.11940495 -0.0047773956 0.07643919 0.34881634 -0.100923814 0.016834475 -0.031310838 0.08109356 -0.11059656 -0.015693218 0.15802217 -0.027492058 0.109728396 -0.27149728 0.26805276 -0.090820685 -0.099872455 -0.22855863 -0.17952715 0.18306707 -0.3254359 0.031712268 -0.43008205 -0.28960016 -0.13645183 0.087088704 -0.064004675 -0.28316355 -0.09063117 0.019222582 -0.4050363 -0.19590305 -0.38102424 -0.1095864 0.69850147 -0.041811217 0.08248036 0.22611576 -0.04578345
101 -0.10532965 0.14156428 -0.09479877 0.026761329 -0.076932415 0.03535259 0.0820713 0.18576168 -0.054975234 -0.08613341 -0.049228184 0.13771994 0.0012983772 0.18668385 -0.099504225 -0.034165103 0.19106564 -0.07664589 0.114891276 0.060639165 -0.13126758 -0.1937987 -0.06631793 -0.04881024 0.2137836 -0.13943814 -0.13627973 0.10388355 0.50047666 -0.18290518 0.03807879 0.07664391 0.1086644 -0.20301726 -0.12884842 0.11891769 0.01834478 0.26580247 -0.0833448 0.15990615 0.06380373 -0.13899714 -0.1730422 -0.05098298 0.19446224 -0.16425331 0.115858175 -0.38676557 -0.4017024 -0.13754423 0.16982943 -0.15280604 -0.30252543 -0.101070695 0.0011999928 -0.42222375 -0.21610443 -0.35594496 -0.057423152 0.5892059 -0.029248895 0.09046053 0.43177393 -0.113956645
91 -0.04945324 0.106465384 -0.049802274 0.023745675 -0.19437863 0.00251789 0.14644212 0.05023138 -0.2180466 -0.17513567 0.031039702 0.083088815 -0.029666834 0.028882839 -0.0018286433 -0.08575923 0.23713022 0.0011843963 0.18359073 0.03081803 0.008815351 -0.055077393 0.04015951 0.08366277 0.018085225 -0.14290093 -0.10398928 0.010241206 0.37465551 -0.15968117 -0.0065911054 -0.07051947 0.019741515 -0.13664208 -0.18999329 0.19249408 -0.010607296 0.26208702 -0.3035776 0.10996631 0.17031479 0.015186282 -0.26650298 -0.12651512 0.097998805 -0.3194503 -0.09730936 -0.31468645 -0.2931545 -0.06890016 0.17053494 -0.13444987 -0.22978361 -0.04178912 0.109427564 -0.3930591 -0.2264371 -0.3663429 0.042524774 0.7061932 -0.0033828267 0.0903054 0.25933853 -0.052717112
50 -0.04263872 0.09797654 -0.18554483 0.038859863 -0.05388973 0.060412437 0.017604204 -0.00056018686 -0.25205567 -0.27985132 0.011398042 -0.0164768 -0.028347375 0.08043098 -0.003607525 -0.06919752 0.15879163 -0.016953602 0.11923272 0.16657388 -0.10503566 -0.1242103 0.030074779 -0.05627726 0.040803473 -0.24041782 -0.047827654 0.005370194 0.47827667 -0.20584545 0.067987524 -0.029173685 0.11112241 -0.13010879 -0.25426012 0.19751918 0.06517491 0.2160218 -0.22693294 0.193038 0.050783787 -0.00088025996 -0.1891071 -0.072357945 0.08760254 -0.26939607 0.08011839 -0.32153052 -0.3369955 -0.23298731 0.086937055 -0.12360709 -0.31072843 -0.011012224 0.04723816 -0.43586686 -0.08948749 -0.3757235 0.050739296 0.60811675 -0.009394018 0.09936735 0.29030788 -0.069873765
42 -0.007665919 0.08237367 -0.0057141306 -0.090341605 -0.08073276 -0.104175396 0.03534579 0.049215037 -0.15832722 -0.18891244 0.050587464 0.11302335 -0.032631185 0.033277754 -0.033995174 -0.072731204 0.11463665 -0.016255707 0.06336008 -0.030783601 0.014104375 -0.038952805 0.018710682 0.058593933 0.06670917 -0.16593577 -0.2360396 -0.034705997 0.46270597 -0.16105329 0.13292184 0.01587259 0.020821396 -0.10161511 -0.00029008827 0.038284957 -0.07795081 0.15565518 -0.22169952 0.23207308 0.11943502 -0.0031458123 -0.301137 -0.042210907 0.16203499 -0.26613644 0.12760746 -0.44145864 -0.27615723 -0.12554918 -0.010809603 -0.029859588 -0.30042645 -0.23014644 0.102297805 -0.30642992 -0.2299523 -0.51992905 0.009784355 0.6643206 -0.07708422 0.069123186 0.27061507 -0.12027541
56 0.032631893 0.03332959 -0.031053787 -0.13493173 -0.086100064 -0.16172177 0.11548045 0.007134579 -0.14435627 -0.3948047 -0.06940246 0.14600855 0.10929175 0.07290335 0.22346854 -0.071693584 0.28370276 -0.13844097 0.13319904 0.12027333 0.011628075 0.025776284 -0.10799926 0.080659695 -0.027127977 -0.2799945 -0.054662336 -0.037848916 0.31470382 -0.1842101 0.0013014146 -0.120198905 -0.14210805 -0.104446515 -0.1702773 0.20297979 0.07232659 0.18966305 -0.24454603 0.17923221 0.116483964 -0.17758708 0.04060027 0.05122141 0.036866255 -0.2033483 -0.04998735 -0.48351696 -0.18894884 -0.12081117 0.123437084 -0.17604774 -0.3826877 -0.09580397 0.15700647 -0.42541432 -0.030250698 -0.5491078 0.0409743 0.5852018 0.0037650592 0.086778834 0.33673579 -0.018466571
131 -0.008489736 -0.008864713 -0.10564294 -0.031416647 -0.16628315 -0.018016852 0.073668025 0.028487626 -0.08224362 -0.39402246 -0.08138486 0.14368665 0.088902675 0.10070506 0.13298704 -0.16262525 0.13432413 0.06048262 0.12604058 0.15722859 -0.09028382 -0.05502563 -0.13912866 0.08207042 -0.079848886 -0.19853304 -0.07076001 0.13716178 0.4488719 -0.16733335 0.01980602 0.042465653 -0.023240993 0.011983562 -0.21801953 0.16206498 -0.034958173 0.15946168 -0.24836372 0.080809206 0.19289728 -0.021866819 -0.12835854 -0.035686333 0.032679033 -0.26765493 -0.032585032 -0.28816238 -0.2681197 -0.03159065 0.20994112 -0.18863481 -0.31529537 -0.06952684 0.12662233 -0.3301441 -0.20897464 -0.47762665 -0.00013418746 0.6217623 -0.011087391 0.13016933 0.44274142 -0.04315217
92 7.953965e-05 -0.02661515 0.0056083854 -0.012302616 -0.12344853 -0.025878679 0.04557669 0.12696044 -0.21164198 -0.31184456 0.002639647 0.10975006 -0.09362751 0.09859113 -0.12715231 0.019646805 0.10169985 -0.042837366 -0.018432807 0.20973918 0.03989534 -0.026005428 0.07377065 0.017521495 -0.0028857235 -0.10563696 -0.13515013 0.06411725 0.42546 -0.15349276 0.037618946 0.02480281 0.07469734 0.041833967 -0.2076788 0.006827197 -0.23330025 0.19857006 -0.191986 0.13130364 0.05404121 0.0064404095 -0.2321388 -0.022320215 -0.0868354 -0.2691683 -0.12251085 -0.3850037 -0.37482437 -0.13917337 0.040318854 -0.09449201 -0.3366584 -0.11822808 0.07328229 -0.41155636 -0.09187221 -0.5318703 0.011513779 0.6495338 0.010321438 0.10826984 0.34818015 -0.0036741851
260 -0.00992421 0.19973956 -0.031379763 -0.063391775 -0.10368666 -0.047010645 0.057640072 0.035759922 -0.0035641058 -0.27954176 -0.12557647 0.09885423 0.052347336 0.010018916 0.07974187 -0.1595521 0.13617438 -0.029479926 0.24566339 0.14115973 0.035899054 -0.16043636 -0.06075765 0.044692267 0.064229354 -0.13455394 -0.072260596 0.015252631 0.44403788 -0.17808352 -0.053567626 -0.14861609 0.010115785 -0.13559122 -0.14044924 0.27109247 -0.11439463 0.22910951 -0.2740744 0.1793557 0.016135091 -0.04416637 -0.09145136 -0.028813964 -0.013737416 -0.17352968 0.033796754 -0.43551865 -0.1503229 -0.12053214 0.21995687 -0.12013047 -0.35679874 -0.11278686 0.2630166 -0.41404462 -0.14903797 -0.47141224 0.1600825 0.6306506 -0.076754965 -0.040580023 0.24815202 0.12133386
307 0.0013050331 0.059559327 0.07190706 -0.07436379 -0.1756835 0.010693572 0.18340568 0.08625575 -0.081189066 -0.16802406 0.0021596486 0.18490745 0.0980662 0.14459857 0.20661455 0.018490454 0.12383515 -0.12872814 0.2518029 0.038021747 -0.010584589 -0.007374989 -0.18844917 -0.03569979 -0.054043025 -0.1323388 0.015494775 -0.016761554 0.29518902 -0.25052553 0.07633832 -0.07516525 0.05503761 -0.036701467 -0.16045779 0.19695899 0.06832098 0.38365525 -0.33082366 0.11446826 0.09036136 -0.20549586 -0.10121229 -0.179171 -0.0091642225 -0.21694675 -0.013477599 -0.36147 -0.20349237 -0.043254625 0.19386135 -0.0065724505 -0.3287613 -0.087251954 0.123976834 -0.27331683 -0.18431482 -0.5442883 0.06761885 0.7003776 -0.13298024 0.072002925 0.3247441 0.036542352
165 0.012838927 0.17438252 -0.037578616 -0.024106665 0.13208209 0.013846132 0.11630027 0.05964965 -0.15108459 -0.15249407 0.13659589 0.020213844 0.024341218 0.11264821 -0.08818247 0.002953574 0.18646485 -0.09109164 -0.0018038703 0.26684043 0.01868175 0.011067636 0.06446846 -0.037395313 0.045767784 -0.19840762 -0.19953951 0.11860143 0.5124894 -0.14071906 0.053137574 -0.004211681 0.15386307 -0.0580906 0.039565913 0.14512902 -0.09050979 0.16275226 -0.16340151 0.26893377 0.04607871 -0.15458108 -0.26462734 -0.16738486 0.12960602 -0.30175203 -0.0056793354 -0.40637818 -0.22487764 -0.13660344 0.12377582 -0.16027394 -0.054437283 -0.15464494 0.0063506905 -0.36445728 -0.27760103 -0.45858943 0.002071111 0.6429605 -0.10978791 0.012566185 0.3531211 -0.067676984
4 -0.033280067 0.05412473 0.0035045485 -0.022062713 -0.16640231 -0.056653664 0.1294865 0.14836448 -0.0994835 -0.26921734 -0.049703028 -0.011529761 -0.052639045 0.11440153 0.018096004 -0.1546313 0.17416322 -0.071418345 0.06889482 0.25437778 0.09185213 -0.017688628 -0.11827338 0.08192036 0.01319079 -0.21896544 -0.12224142 0.0015764892 0.4434653 0.00037984393 0.08154003 -0.15146632 0.015114463 0.019199856 -0.154672 0.21545824 -0.12512495 0.2739379 -0.23450957 0.07629964 0.10918176 -0.010152133 -0.24174997 -0.04985433 -0.023411343 -0.32160482 0.018141555 -0.39454997 -0.19856197 -0.0013412364 0.18115185 -0.039126303 -0.4006057 -0.09300655 0.09043521 -0.30392373 -0.2794404 -0.49094406 0.09099077 0.6245317 0.0015427424 0.17014475 0.25799736 0.009369036
213 0.08354964 0.031947028 -0.021777391 -0.1099346 -0.06059844 -0.02716536 -0.027783956 -0.010820498 -0.16022317 -0.27160814 -0.04760072 0.11545436 0.046874333 0.12961736 0.12288851 -0.12773915 0.20399705 -0.123450674 0.25456926 0.07711207 -0.05795123 0.03160986 -0.046282202 0.014424723 -0.070209794 -0.09661677 -0.13313141 -0.034945704 0.3253642 -0.24194573 0.08317658 -0.11482266 0.009889847 -0.06598344 -0.21079032 0.13391937 -0.07093566 0.339746 -0.21622206 0.19657627 0.05103717 -0.09109321 -0.089468785 -0.06544358 0.026101753 -0.24291532 -0.09736573 -0.32178578 -0.2958716 -0.07663954 0.09844644 -0.06457764 -0.28590718 -0.07950855 0.1707349 -0.30382496 -0.15300722 -0.4888969 0.072251424 0.6975283 -0.13436705 0.08434223 0.34767014 0.10345768
269 -0.053435005 0.2002348 -0.021055667 -0.048173513 0.07877461 -0.0018409722 0.06114471 0.18590575 -0.24143727 -0.13646144 0.16965638 0.20077638 -0.06237389 0.051427808 -0.13571213 -0.09926245 0.24968857 -0.08204765 -0.017156353 0.02486315 0.00986409 0.04268933 -0.04063159 -0.103021994 0.037595324 -0.031203246 -0.050874937 0.010350724 0.49918744 -0.17179261 0.013290357 0.056882866 0.10705531 0.020420656 0.049773358 0.12706433 -0.05812963 0.27161786 -0.23162155 0.19458793 -0.06999412 -0.07605726 -0.20316784 -0.048171163 0.348122 -0.3019267 0.0009983325 -0.3267071 -0.3617963 -0.12764017 0.125876 -0.1896102 -0.20997345 -0.14089741 -0.030041497 -0.3297829 -0.12615861 -0.4709314 0.04293821 0.7143219 0.0047954186 0.057596125 0.25506884 0.030599143
103 0.029598573 -0.045010015 -0.03856715 -0.15128624 -0.125809 0.060622964 -0.025804713 -0.17914483 -0.17821579 -0.34947804 -0.14238557 0.14449884 0.090425394 0.1846829 0.08217166 -0.12045874 0.19207227 -0.22667947 0.1762677 0.1830614 0.01868669 -0.05758501 -0.17993982 0.09963461 -0.078969166 -0.18839468 0.02044799 -0.00707972 0.21032543 -0.14690216 0.09945778 -0.20075782 0.07230306 -0.050385267 -0.14890894 0.20839271 -0.0993163 0.30111587 -0.2756943 0.1664535 0.071576975 -0.05656778 -0.17198583 0.03538303 0.025235316 -0.2937512 0.009581171 -0.3578535 -0.28497618 -0.021985184 0.23670329 -0.07474186 -0.1617785 -0.13584311 0.13856994 -0.35730937 -0.18891358 -0.47618976 0.024350906 0.6871763 -0.08417074 0.11563611 0.35626063 0.073361784
57 -0.10906806 0.18022 -0.040455375 -0.06337053 -0.045953892 -0.2167859 0.1472948 0.1632979 -0.17842549 -0.2999329 -0.0047962912 0.104701996 0.032837506 0.089669995 -0.13322194 0.06694895 0.13355462 -0.042334367 0.11770717 0.06777026 0.023268744 -0.085482255 -0.027978074 0.004182378 0.057867106 -0.14617386 -0.07006546 0.083069555 0.47801757 -0.119665585 -0.019027108 -0.010530943 0.09958254 -0.084586844 0.075542815 0.032987226 0.092493355 0.2848075 -0.25858885 0.12193867 0.015026314 -0.091832004 -0.093129374 -0.18221587 0.3040048 -0.3047533 -0.06343897 -0.41398644 -0.22994563 -0.104485504 0.06849617 -0.17972238 -0.260447 -0.14948423 -0.04365605 -0.4268616 -0.23376204 -0.44943964 0.03923144 0.53471404 -0.064465545 0.15703763 0.3382044 -0.008553804
716 -0.019314721 0.122321144 -0.04899016 0.0150567535 -0.106577165 0.052011274 0.089818716 0.107716195 -0.105265304 -0.25894326 0.0257568 0.118172616 0.07548839 -0.0100617595 -0.06480958 -0.13798831 0.13328621 0.0228207 0.13860096 0.14187148 0.02399409 -0.1267808 0.04418578 0.019634334 -0.14944468 -0.1577241 -0.11786975 -0.078129634 0.49318156 -0.16464695 0.027705349 -0.08612539 0.13914077 -0.17167696 -0.14198476 0.2574933 -0.010177033 0.35978547 -0.20099033 0.14222178 0.13977246 -0.086931415 -0.18585108 -0.084286064 0.08816809 -0.33903787 0.09861254 -0.41380042 -0.19621222 -0.094745316 0.18506944 -0.06341811 -0.19926421 -0.014196519 0.089252286 -0.35413697 -0.11833202 -0.42746577 0.07206059 0.60173434 -0.09260881 0.06273019 0.26984763 -0.019858962
515 0.040897794 0.058660813 -0.006230967 -0.093198806 -0.05210766 -0.02000597 0.11880635 0.16841711 -0.14203918 -0.26915184 0.21950231 0.05938266 -0.0643025 -0.019621996 0.055776533 -0.07386029 0.12772897 -0.08725239 0.1278772 0.12350831 -0.0013388003 0.024212303 -0.028251242 0.011447542 0.0659695 -0.14096086 -0.15040639 -0.09532395 0.53345084 -0.021350715 0.046218008 -0.16085368 -0.004333456 -0.05321042 -0.1329307 0.072815225 -0.13397108 0.19414707 -0.20565543 0.14714633 0.13266036 -0.018365765 -0.20028004 -0.03644619 -0.026847785 -0.29208878 0.049538776 -0.39309365 -0.34214836 -0.19934618 0.06542616 -0.012074881 -0.30030766 -0.13921964 -0.00050142367 -0.27655303 -0.16866782 -0.5928692 0.095419124 0.61227447 0.056811906 0.12807363 0.33370712 -0.04727441
221 -0.04371924 0.15577643 -0.13692331 0.044490807 -0.089274526 0.012427834 0.13125391 0.33316177 -0.21572286 -0.19345285 0.061731692 0.13929535 -0.04950193 0.033218697 -0.18567076 -0.09322665 0.19971912 -0.14202392 0.1300892 0.16517578 0.11139251 -0.020743977 0.02177272 0.05090363 -0.08138406 -0.110984996 -0.13189246 0.1645583 0.32470363 -0.23080827 0.046330355 -0.073947534 0.07369397 0.0053916187 -0.20618774 0.27469584 0.0068080663 0.26723203 -0.17281832 0.2505821 0.0836247 -0.033282768 -0.12529337 -0.0039411103 0.2670968 -0.26031458 0.029583514 -0.43439314 -0.18204637 0.057843864 0.053653453 -0.14254838 -0.29163173 -0.15598164 0.06649404 -0.38151416 -0.22779092 -0.3667725 -0.056611255 0.6126981 -0.03410871 0.099900156 0.30826247 -0.11397907
174 -0.025619224 0.059749074 0.025736544 -0.20329358 -0.083593905 -0.08399146 -0.0069706948 0.1012634 -0.096251726 -0.3005411 0.010197356 -0.045373045 0.054315608 0.07183218 0.07773686 -0.0014741708 0.15962097 0.007325169 -0.04947633 0.11853548 -0.0676913 -0.031383075 -0.03581576 0.09374016 -0.042441662 -0.24417602 -0.21384946 -0.1279167 0.43081203 -0.104513735 0.17797394 -0.14522338 0.08669558 -0.080910794 -0.19675201 0.19714971 -0.080124676 0.26250288 -0.31299296 0.064992405 0.0547538 -0.124117695 -0.08257099 -0.006049863 -0.010555203 -0.3113565 0.062384464 -0.47629973 -0.12053536 -0.13131009 0.22997412 -0.11940894 -0.25756624 -0.05210764 0.1502076 -0.33245456 -0.25860822 -0.42628402 0.20644009 0.67764944 0.063829266 0.14917496 0.337459 0.015582324
40 -0.040572036 -0.040170267 0.040668424 -0.07570686 -0.021363575 -0.053886343 0.18757577 0.18607028 -0.07412243 -0.1998818 0.1406975 0.18749237 0.013049038 -0.05003539 -0.067591 0.07677796 0.2499798 0.053472772 -0.054964624 0.10733616 -0.047857255 -0.039250582 0.105207086 0.0075817523 0.006817804 -0.111357026 -0.13592218 0.05494866 0.4528795 -0.18428527 0.035177458 -0.07017199 0.03471451 -0.009821342 -0.08588193 0.08918712 0.019223912 0.3052639 -0.12754704 0.2567702 0.16975807 -0.14645529 -0.28824145 -0.057510093 0.2006746 -0.36859483 0.069711976 -0.33289778 -0.2456078 -0.020841487 0.010071118 -0.2005106 -0.183146 -0.16662228 0.02628673 -0.34607336 -0.20600583 -0.47418764 0.052086677 0.64219356 -0.031204041 0.20239554 0.34920326 0.007104357
240 0.013566015 0.0785792 0.124108754 -0.1791908 -0.09152845 0.028087478 0.12573789 0.01559489 -0.0834926 -0.30118904 0.05491946 0.068762966 0.0087550115 0.12329663 -0.006746825 -0.1156427 0.0444708 -0.011331063 0.14536473 0.017787399 0.036287323 -0.07810445 0.015840644 0.018319122 0.031671632 -0.22703156 -0.085841924 -0.03595973 0.4611184 -0.08171538 0.11265494 -0.124575034 0.08000427 -0.035341218 -0.15282759 -0.04216125 -0.17069906 0.2483288 -0.19384468 0.27944288 0.060725037 -0.093288444 -0.15041214 -0.034713935 -0.12478356 -0.22443207 -0.069566555 -0.5370295 -0.25788426 -0.084263265 -0.028667152 -0.07715142 -0.37359884 -0.054105923 0.030471064 -0.4222239 -0.1930429 -0.46015173 0.19997703 0.626424 -0.05388526 0.19180681 0.30622432 0.06197046
28 0.058415566 -0.08194162 -0.10336983 -0.087930806 -0.08572106 -0.08992663 0.20521872 0.14397965 -0.12926184 -0.22093593 0.012082409 0.07062306 -0.00638206 0.05869527 -0.076380014 -0.14258787 0.15305984 -0.11326922 0.093779735 0.108002186 -0.075221054 -0.10895432 0.063332476 0.13132636 -0.046471633 -0.35943544 -0.06759272 -0.047011122 0.43514985 -0.08453796 0.06644363 -0.12898594 0.09294877 0.012365344 -0.20368832 0.070075914 -0.20510155 0.28060377 -0.21162447 0.13714765 0.06603202 0.0067591215 -0.14596288 -0.06711239 -0.0057405285 -0.24263577 -0.07233548 -0.40677926 -0.3266316 -0.113180935 0.19283307 0.045251213 -0.2977036 -0.03462187 0.11331724 -0.3826321 -0.24170417 -0.41922048 0.1486328 0.66836303 -0.068396024 0.09638355 0.23609665 0.0047028745
306 0.01618275 0.15553793 -0.038050905 -0.009287136 -0.06117523 -0.04559805 0.19539332 0.25530902 -0.24204265 -0.34047112 0.10517016 0.022026233 -0.07800009 0.02823229 -0.06077549 -0.045642726 0.1491244 0.037087966 0.07095493 0.18308201 0.05469734 -0.03455894 0.029919019 0.010721628 -0.04491557 -0.08617612 -0.213455 0.029185886 0.40964338 -0.047292266 -0.008067968 0.018840905 0.066480465 -0.059049375 0.05180829 0.17009479 -0.09703002 0.18827584 -0.18328473 0.26555398 0.14007044 -0.05036722 -0.2803606 -0.040763967 0.08372946 -0.32596013 0.027839443 -0.38929132 -0.30725867 -0.15800282 0.08122168 -0.086963266 -0.19477578 -0.18018758 0.15348408 -0.44787836 -0.20635647 -0.34151137 -0.0106379995 0.6090444 -0.09113693 0.14092131 0.3149841 0.031136792
3 -0.030022448 0.27282616 -0.051422436 0.036017694 -0.033823024 -0.09566399 0.16480619 0.21549112 -0.18567237 -0.21136285 0.061881103 0.015832262 -0.03332533 0.14801562 -0.19138005 0.04010489 0.21977644 0.070547625 0.011532154 0.17647469 0.05255802 -0.019205613 0.074732855 -0.046232074 -0.025721693 -0.23569088 -0.22339325 0.038558487 0.47573173 -0.07296796 0.09684973 0.09744362 0.036290694 0.042995863 -0.03869332 0.06345093 -0.07667942 0.2047495 -0.24508289 0.15803434 0.08166081 -0.19903618 -0.13244927 -0.059246536 0.1694429 -0.17463036 -0.10432286 -0.3665219 -0.25255626 -0.15760647 0.0914501 -0.014525825 -0.17804416 -0.26310894 -0.028673638 -0.42895636 -0.23810701 -0.49450833 0.05660446 0.6560784 -0.04604398 0.14199002 0.31000397 0.015871812
166 -0.031950764 0.104457006 -0.21080711 0.09541693 0.005554503 -0.076727465 0.15925235 0.22349659 -0.14208834 -0.23586212 0.052390568 0.13014285 -0.0032329215 0.024964409 -0.12913875 -0.0024377042 0.10949885 -0.08896367 0.015981337 0.07909406 -0.013501544 -0.26845258 -0.05439935 -0.031259324 -0.017044315 -0.036287338 -0.13911375 0.15290837 0.46735844 -0.17121033 0.056643758 -0.063036285 0.094137385 -0.17562889 -0.13990106 -0.015943747 -0.054998152 0.2743352 -0.19178933 0.31890357 -0.037699338 -0.052139167 -0.15961592 -0.109483436 0.26298618 -0.26846102 0.044871856 -0.3664751 -0.27186057 -0.18907282 -0.10370791 0.050418552 -0.2815324 -0.031406913 0.052187525 -0.40977043 -0.31291032 -0.48964196 0.009167406 0.58510745 -0.074048005 0.0019852968 0.30120388 0.041676696
13 -0.054803744 -0.11776876 0.13674322 -0.24355425 -0.07393703 -0.11185627 0.1331126 -0.0052455384 -0.13017914 -0.36751047 -0.06863638 0.20519598 0.055607475 0.031491794 0.07141733 -0.14163958 0.20043463 -0.11401273 0.13517791 0.050307784 -0.06534755 -0.084086426 -0.04497367 0.009882402 -0.03192352 -0.29762563 -0.044898618 -0.08821139 0.33081734 -0.09887642 0.03572233 -0.1926599 -0.083097465 0.06970122 -0.15467072 0.16564423 -0.034294084 0.35306856 -0.19245502 0.17975268 0.20648842 0.03903338 -0.24087268 -0.027287157 -0.0407675 -0.16444764 -0.037376128 -0.45334804 -0.13791426 -0.06931202 0.22538495 -0.046035137 -0.35700268 -0.0453748 0.008601144 -0.39776602 -0.2022981 -0.36487737 -0.049409684 0.64937997 -0.21602671 0.23514743 0.46258634 0.12841234
136 0.056114618 -0.035914518 0.007920456 -0.12277758 -0.17212248 -0.05661544 0.06386056 0.03121659 -0.16771227 -0.41477627 -0.040915992 0.10472929 0.057773955 0.10354031 0.14604968 -0.09444501 0.21877055 -0.19135842 0.20800653 0.26866633 0.0032333785 -0.10263542 -0.21757634 0.021533739 -0.014094562 -0.22821145 -0.0036234204 -0.051777538 0.37126225 -0.11665791 0.15094396 -0.124988034 -0.05512583 -0.034611132 -0.22806644 0.20796482 -0.030512966 0.328045 -0.19242065 0.18818143 0.06362042 -0.07671969 0.003804658 0.08483705 -0.048085183 -0.20867544 -0.07600889 -0.44187486 -0.29236332 -0.04286447 0.14109828 -0.02098428 -0.14400154 -0.068332486 0.11162818 -0.41999018 -0.2457731 -0.48616222 0.029550511 0.57327527 -0.08724003 0.066256925 0.37334335 0.08340188
97 -0.099459514 0.16320652 -0.11476016 0.062186603 0.031404782 -0.09493679 0.08127169 0.0814168 -0.24047032 -0.10978127 0.061097566 0.23490931 0.007442628 0.036801495 -0.18679109 0.04514191 0.18457599 -0.070077956 -0.02232252 0.11762812 0.025744308 -0.07069149 0.016752474 0.030481322 -0.014307093 -0.22712004 -0.13276528 -0.006944346 0.5615263 -0.11255374 0.025986059 -0.04242252 0.1578416 -0.10270448 0.043386098 0.12975693 0.0565289 0.27114114 -0.268667 0.31394094 0.048676256 -0.089023806 -0.12739551 -0.035698704 0.16423394 -0.31142727 -0.05987156 -0.3316977 -0.26827395 -0.07332956 0.09758326 -0.12361246 -0.17628929 -0.12264744 -0.038017705 -0.43513173 -0.18099977 -0.35572845 0.08730577 0.62048274 -0.05621863 0.08934513 0.35861096 -0.028250474
191 -0.08563997 0.0048990776 0.016242454 -0.03174055 -0.104089856 -0.16033442 0.14783351 -0.0452334 -0.048533604 -0.25423238 -0.0017406532 0.012992141 -0.04156532 0.07477105 -0.02390282 -0.056697674 0.10256434 -0.01962579 -0.07290968 0.20107912 -0.022135004 -0.15756814 0.008736029 0.16382429 -0.046928544 -0.13913368 -0.03917547 -0.13097754 0.42357394 -0.12091005 0.07990485 -0.09939507 0.007580807 -0.07147793 -0.12034634 0.20094067 -0.13178286 0.26372084 -0.2052497 0.020743106 0.22939667 -0.100599594 -0.26819307 -0.062449213 -0.04828779 -0.24615067 -0.07939499 -0.4128642 -0.24893203 -0.12474931 0.08476753 -0.090067625 -0.271593 -0.07402305 0.100462824 -0.33375007 -0.14147303 -0.6574639 0.17681696 0.66802996 -0.013556702 0.20032012 0.3038134 -0.094083995
53 -0.047057234 0.26519006 -0.1310986 -0.034826607 -0.1277537 -0.091870755 0.24332637 0.25389302 -0.1341966 -0.3224887 0.13434789 0.1250081 -0.06372719 0.0069118 -0.26839715 0.05320225 0.110732205 -0.020520056 0.039892267 0.24359064 0.002026184 0.11257182 0.11887737 -0.120826274 0.043585487 -0.16651495 -0.15035291 0.090586595 0.4405237 -0.08063089 0.040450063 -0.01520089 0.0736896 -0.112519495 -0.04901406 0.24316476 -0.11603626 0.20184872 -0.17252819 0.29133058 0.047473494 -0.1347722 -0.25592667 -0.10357703 0.29592636 -0.18875198 0.14701001 -0.3147222 -0.2710648 -0.124392934 0.12156537 -0.034525376 -0.17942029 -0.07051368 -0.045489606 -0.26908788 -0.25733837 -0.46205384 0.04275533 0.63767946 -0.15182161 0.069364525 0.37603205 -0.14959475
329 0.018443227 0.2512314 -0.24879673 0.004520866 -0.012098843 0.09808748 0.19775659 0.24512069 -0.09889285 -0.27960792 -0.05889751 0.087912336 -0.006269784 -0.06809675 -0.28176093 -0.0702684 0.24662036 -0.0025186474 -0.00018962238 0.14854243 -0.053187083 -0.038342755 -0.017779164 -0.09507282 -0.023367288 -0.0038395529 -0.18850398 -0.004269618 0.4178703 -0.026327541 0.030722132 -0.043052774 0.12291875 -0.052111946 0.03234149 0.09833667 -0.043125227 0.28584936 -0.19127698 0.19066572 -0.027962226 -0.037721988 -0.15714273 -0.18156263 0.2356024 -0.19102608 -0.0053624273 -0.40080425 -0.23437843 -0.16818859 0.01587053 -0.120467745 -0.17366445 -0.16533865 0.07508708 -0.40582943 -0.13293327 -0.44137707 -0.028847605 0.73369974 -0.054514565 0.01952122 0.33643556 -0.050309703
197 -0.025569193 0.021475667 -0.028871845 -0.08363345 -0.24331534 -0.06741829 -0.003642253 0.039423272 -0.08129275 -0.36436862 -0.0633605 0.20481604 0.17584324 0.16228437 0.12563105 -0.033366416 0.2424755 -0.03371256 0.13543281 0.23767017 0.00925099 0.00236856 0.00027588915 0.040969342 0.06571078 -0.27234766 -0.03670422 0.05272321 0.4132149 -0.084097095 0.085546434 -0.26266828 -0.003498613 0.030841669 -0.1324847 0.14650339 -0.108069666 0.398714 -0.16922975 0.07413261 0.14317213 -0.024467722 -0.236368 0.021224927 -0.079762265 -0.2095776 0.01936172 -0.3357235 -0.26050198 -0.09516936 0.1751299 0.065751374 -0.21583122 -0.13510245 0.13748837 -0.5028661 -0.22379273 -0.44435328 0.042504303 0.6408148 -0.062234774 0.0518603 0.29564714 0.050456762
231 -0.031005457 0.1907888 -0.1027993 0.08661033 -0.020214051 0.004599581 0.09289509 0.21596858 -0.1757586 -0.26579845 0.07512173 0.119329 0.0082157785 0.097486526 -0.13133068 -0.049606368 0.19745511 -0.06109051 -0.0047570043 0.13417105 -0.13185479 -0.047648594 -0.10322335 0.06327959 -0.054898754 -0.08254538 0.03289153 0.10677408 0.38471836 -0.1523702 0.021608576 0.03490783 0.22762616 0.012170857 0.007186086 0.22099996 0.08091579 0.29175895 -0.25535926 0.2767744 0.026227316 -0.034037203 -0.15684287 -0.17140085 0.19105932 -0.31872043 0.02885587 -0.5013261 -0.2707557 -0.2920793 0.16760214 -0.16592272 -0.21286827 -0.11087025 -0.030315937 -0.35770848 -0.23762937 -0.3736817 0.13045982 0.46611518 -0.17613478 0.16612145 0.42045096 -0.0059875795
664 -0.012808692 -0.050804783 -0.011638886 -0.27403116 -0.21824358 -0.120412044 0.081196874 0.009276003 -0.03998889 -0.3649737 0.04071006 0.12427081 0.16791223 0.07540834 0.04113571 -0.29204157 0.16267055 -0.04301766 0.25766736 0.055637408 -0.047684327 -0.006938719 -0.14645153 -0.03498292 0.066654526 -0.2055065 -0.06806519 -0.07474613 0.18903023 -0.15157571 0.020105062 -0.07312351 0.0038967796 0.0054297955 -0.20893018 0.15472102 -0.0585964 0.3451537 -0.2066464 0.14651383 0.049530383 -0.056644373 -0.09939456 0.0937548 0.006545788 -0.13872729 -0.039675646 -0.4224637 -0.15377998 -0.09311587 0.25052458 -0.15296964 -0.29169646 -0.112533525 0.11315108 -0.4607829 -0.31453082 -0.39466056 -0.019950911 0.74179745 -0.12559375 0.080470696 0.37001386 0.25068784
524 -0.029237412 0.04761477 -0.11461914 -0.14905159 -0.03272181 -0.015109388 0.12783739 0.016251111 -0.07099764 -0.29803604 0.1531863 -0.057568833 -0.036357436 0.14274563 -0.06656797 -0.0009938603 0.2205726 -0.048130758 -0.1121905 0.032280054 0.107891135 -0.03512102 0.053398024 0.08656544 -0.061715227 -0.09005541 -0.18811096 -0.0497044 0.5570745 -0.16688335 0.1563834 -0.0031595207 -0.028588327 -0.1331032 -0.045493938 0.058289457 -0.07318552 0.33923748 -0.20691845 0.26022717 0.11762601 -0.20003557 -0.16881485 -0.053661335 -0.052237228 -0.26379326 0.016279992 -0.45345217 -0.27009994 -0.14305986 0.14546546 -0.06549263 -0.25849956 -0.17376107 0.015245648 -0.40591204 -0.12830509 -0.5258545 0.052715935 0.5728354 0.031247739 0.20387885 0.24463005 0.03200589
256 -0.018559063 0.040351808 -0.09463568 -0.06279766 -0.1648655 -0.19739853 0.18230215 0.12762524 -0.137343 -0.31274584 0.15275092 0.12317634 -0.064117245 0.1137702 -0.14109083 0.06594289 0.04972488 0.0065531023 -0.031344492 0.14141543 0.015363807 -0.09474852 0.03643754 -0.008140044 -0.00038643074 -0.14587645 -0.045635417 0.042111877 0.46508926 -0.13791606 0.013066818 0.02201201 0.0002318738 0.0011747142 -0.0675915 0.0642877 -0.08730673 0.22219563 -0.3659314 0.22445726 0.21380398 -0.049579047 -0.13743304 -0.074590124 0.008459996 -0.34432092 0.022840044 -0.32780474 -0.25435275 -0.14144339 0.015668413 -6.485982e-05 -0.4168999 -0.1260961 0.0693465 -0.16392834 -0.13131483 -0.59206945 0.06227281 0.66246426 -0.00876004 0.15065213 0.3208372 -0.10890347
130 -0.063561566 0.07457389 -0.0953128 -0.13504982 -0.0656462 0.04610873 0.15926668 0.14349729 -0.17964213 -0.3913863 0.027489033 -0.014553281 -0.029061485 0.037027877 -0.07336967 0.095067106 0.04458381 -0.029536787 0.20214367 0.08023431 0.12920475 -0.062650315 -0.104923554 0.09789205 -0.025357151 -0.23051135 -0.06454733 -0.022801979 0.4876559 0.048905898 0.04433777 -0.087107815 -0.029158931 -0.08590779 -0.10102438 0.12782079 -0.17907389 0.1918533 -0.17655179 0.11730438 -0.0054114675 -0.15912837 -0.20406461 -0.085048415 -0.0018975862 -0.26144078 -0.11796816 -0.40723205 -0.39782867 -0.14906502 0.066972926 -0.021928497 -0.2808077 -0.048557844 -0.021648768 -0.46308675 -0.06493407 -0.42307732 0.10694957 0.6110203 -0.02056029 0.26151398 0.3993954 -0.05422537
288 -0.03458378 0.22484502 -0.012154368 -0.12439233 0.1440354 0.03128232 0.16009218 0.23296887 -0.15521488 -0.22189033 0.16680235 -0.059565112 0.039877575 -0.06714534 -0.2327488 0.012045673 0.21254618 0.017656012 -0.008243269 0.20857534 -0.028401006 -0.007893674 -0.11992171 0.02259347 0.084587045 -0.118412726 -0.09487649 0.04005557 0.5422792 -0.15488842 0.027965454 0.06065181 0.06389436 -0.13551578 0.1183633 0.17137627 0.048404947 0.17390601 -0.24959616 0.34458235 0.07527987 -0.065558665 -0.21607524 -0.066288434 0.27262616 -0.28020334 0.09721668 -0.31208584 -0.23403274 -0.019037064 0.03084694 -0.03834704 -0.077891305 -0.14325513 -0.017096383 -0.3322921 -0.20006587 -0.4674884 0.12408901 0.68764234 -0.17156649 0.019523293 0.38354835 -0.09268185
5 -0.05779835 0.136879 -0.007606404 0.031351514 -0.09147045 -0.057597697 0.10915355 -0.018036358 -0.15346988 -0.086946785 -0.06253442 0.17533037 -0.109103315 0.09235158 0.04676045 -0.14917718 0.14047967 -0.065779515 0.11045202 0.03625483 0.07390423 -0.13081756 0.02912258 -0.026487831 0.00140709 -0.18826734 -0.04704771 -0.008203086 0.4829416 -0.1869229 -0.008839102 -0.04658989 0.09581625 -0.11119298 -0.1669888 0.2035533 0.015445887 0.29027593 -0.27077627 0.305653 0.018957753 -0.018987782 -0.24126212 -0.026476853 0.013172158 -0.23602253 -0.037963405 -0.31580803 -0.29786965 -0.09875793 0.22165745 -0.1261733 -0.2690818 -0.039415896 -0.0009954842 -0.38317814 -0.20267648 -0.43365633 0.08592527 0.6176233 -0.02522569 0.11607545 0.3253066 -0.040823895
207 0.01574059 0.15963279 -0.13200103 -0.011517783 0.024350187 0.018366974 0.19682835 0.1819055 -0.17377791 -0.1197862 0.06345251 0.19255298 -0.09929317 -0.04130482 -0.1718872 -0.07789947 0.16354582 0.036376793 -0.03358645 0.15466893 -0.07346091 0.08813938 -0.06810319 -0.01130254 -0.0060547316 -0.116760924 -0.20218179 0.1364204 0.42972726 -0.057735752 0.043243546 -0.03638666 0.11316186 -0.1356953 0.029716883 0.111247286 -0.12611419 0.15714909 -0.23410007 0.21507883 -0.0047544534 -0.0021678517 -0.26502064 -0.01801887 0.24829826 -0.3172637 -0.04198885 -0.4587827 -0.33615726 -0.14927635 0.088657126 -0.07176103 -0.26071066 -0.18314056 -0.079527736 -0.3172663 -0.19270946 -0.46512976 -0.006023475 0.64019984 -0.042812735 0.025703177 0.33855295 -0.039973594
75 0.10381517 0.24667062 -0.084115036 -0.056318548 0.009105939 0.11315985 -0.037329376 0.076528236 -0.18252905 -0.21367988 -0.016402809 0.21732481 0.08544666 0.10734166 -0.16417548 -0.103978716 0.21775302 -0.052408256 0.044922642 0.25249314 0.009336784 -0.09223082 0.02097386 -0.011708803 -0.061962176 -0.115571804 -0.13261183 0.017089084 0.39596292 -0.28058803 0.049217418 -0.050816484 0.0051698554 -0.20577052 -0.15281704 0.18998925 0.04062588 0.1535095 -0.2554015 0.24791247 0.05315625 -0.005247703 -0.15614776 -0.10933021 0.23742497 -0.34698093 -0.028251946 -0.24267232 -0.1864942 -0.11743542 0.1690833 -0.08677836 -0.28381228 -0.10115802 0.10480427 -0.36719745 -0.19812965 -0.3669309 -0.025050193 0.56675726 -0.088868074 0.23167226 0.45682782 0.038624786
11 -0.048098363 0.09671569 -0.016611144 0.011294219 -0.089449935 -0.09497703 0.19804882 0.11886565 -0.235179 -0.38727006 0.05230266 0.1355412 1.697228e-05 0.044522688 -0.008175083 0.008958688 0.17097752 -0.070628665 -0.037312716 0.16713858 0.029813962 0.028495371 0.09320919 0.032417227 -0.07541778 -0.0621945 -0.12894292 0.05163201 0.4678687 -0.09259953 -0.08626901 0.06321276 0.0111535955 -0.0057121655 -0.04822877 0.07859766 -0.035464536 0.21851778 -0.13325591 0.1804246 0.22614017 -0.11336952 -0.18464768 -0.22099979 0.12623116 -0.34671327 -0.035976324 -0.45113945 -0.32721412 -0.25072944 0.13179038 -0.024294091 -0.25197235 -0.097521596 -0.013083783 -0.3793613 -0.1505626 -0.53634346 0.018999683 0.5369532 0.043943174 0.2343847 0.2591495 0.070824124
211 0.030851213 -0.032385267 0.14754789 -0.015121031 -0.049812973 -0.02833783 0.0046473388 -0.004566451 -0.079132795 -0.4138883 -0.01422733 0.013070724 0.06965323 0.0920542 0.20230766 -0.13786715 0.1605137 -0.11130027 0.16610458 0.2100366 -0.06752193 -0.06555083 0.063359894 -0.008696065 -0.06666111 -0.28859815 -0.08608214 0.005203751 0.4240114 -0.06873862 0.098974496 -0.16949289 -0.007348765 0.002071845 -0.08398109 0.06861195 -0.06764603 0.09830721 -0.22291596 0.26573893 0.085053556 -0.051175468 0.033755116 0.15181042 0.01024939 -0.20731562 -0.07820032 -0.3758241 -0.23265126 -0.14608346 0.2107764 -0.056925602 -0.36564434 -0.048319068 0.048948105 -0.48235124 -0.17146482 -0.41391015 0.07676794 0.73286885 -0.0068159224 0.2535168 0.35766834 0.18232748
185 -0.0124933915 -0.0962523 0.0761901 -0.13597296 -0.23432803 -0.041047886 0.10440862 0.033090614 -0.048643764 -0.45973843 -0.030001655 0.052027132 0.017541543 0.20267124 0.1083509 -0.15883994 0.16095355 -0.15195234 0.19713521 0.08055189 0.049395144 -0.034008853 -0.109445624 -0.09795437 0.03784296 -0.1959584 -0.039762985 -0.018271724 0.18836595 -0.09926195 -0.013302197 -0.10728239 -0.02696613 0.024383228 -0.24647063 0.15378094 0.00041201658 0.41010594 -0.23760365 0.18367542 -0.0019034245 -0.05241077 -0.027694935 0.023244424 -0.029823037 -0.122959025 -0.014738864 -0.43681553 -0.1711832 -0.103139825 0.19073905 -0.070907936 -0.34577537 -0.12760954 0.1103497 -0.3664776 -0.24653088 -0.43464744 0.10593972 0.6944373 0.0055410177 0.06288155 0.5050983 0.15386938
137 0.029570987 -0.03552812 0.08234977 -0.19117513 -0.1754377 -0.07523948 0.21537662 0.021621738 -0.12232226 -0.351667 -0.06592776 0.23190817 0.0585943 0.14749296 0.11189315 -0.13137177 0.25442946 -0.04423632 0.2580721 0.23611842 -0.047734924 0.011088209 -0.06848052 0.008209494 -0.08288501 -0.21750326 -0.0120018525 -0.16873623 0.34762758 -0.024280524 0.1359909 -0.14954326 -0.13439865 -0.07079904 -0.081006356 0.1341902 0.01398461 0.35466152 -0.23306538 0.15636857 0.0403641 0.019206539 -0.034973085 0.061373375 -0.02615945 -0.159239 -0.07777135 -0.36219117 -0.23747657 -0.06530188 0.029118175 -0.0646651 -0.32751718 -0.11347738 0.13193697 -0.43123612 -0.20252782 -0.5458613 -0.011577096 0.6345956 -0.0660491 0.18474114 0.32318553 0.04152517
320 0.1533572 -0.06355544 0.009193614 -0.15670426 -0.03088352 0.01470711 0.10819151 0.20455031 -0.107804164 -0.35334873 0.03538734 0.039295863 -0.089462906 0.07819993 0.02346484 0.020376215 0.13331923 0.020916115 0.1097746 0.08269602 0.10693541 0.023030428 -0.03639512 0.064928286 -0.008408855 -0.22966331 -0.11322293 0.0019726034 0.46516722 0.022544382 0.063955486 -0.002848624 -0.005157218 0.060313158 -0.08745022 0.11016442 -0.15539671 0.20564145 -0.2287008 0.15845735 0.14259891 -0.0451009 -0.20802063 -0.021235717 -0.07026533 -0.31673166 0.014045624 -0.35290104 -0.23394391 -0.2169284 0.14533405 -0.08512434 -0.33275384 -0.0036730883 0.10049939 -0.41641465 -0.08015726 -0.5393616 0.015493947 0.6588213 -0.048736185 0.21707828 0.3599633 -0.10689045
25 0.093940675 0.064556316 -0.16080692 -0.07709868 -0.14597085 -0.023513427 -0.007071396 0.13880783 -0.09945082 -0.17144556 0.0002712477 0.031721618 0.06405515 0.1412032 0.03176125 -0.13646525 0.096844405 -0.026456848 0.15636292 0.07939162 0.004502878 -0.17194629 -0.0630844 0.024394212 0.04674117 -0.12639919 -0.101457916 -0.010012717 0.3216996 -0.08139988 -0.13255529 -0.15128136 0.089092076 -0.08399673 -0.13112965 0.31239024 0.018905917 0.20994547 -0.2978183 0.2945573 0.15083711 -0.08142882 -0.16533493 -0.09771501 0.075411685 -0.29543015 0.011363344 -0.3978143 -0.25358346 -0.07696905 0.16065893 -0.15644607 -0.35149613 -0.19058494 0.2740836 -0.3919396 -0.0746679 -0.32933506 0.087328404 0.6637401 -0.18016793 0.051745012 0.34294108 0.0473792
119 0.03803908 0.04306043 -0.034621127 -0.1020652 -0.06743561 -0.11238319 0.15778841 0.20595899 -0.13509421 -0.28814596 0.09137187 0.037017833 -0.0074053565 -0.039382365 -0.040497005 0.0071035395 0.16699749 0.040104646 -0.0057858718 0.049135197 0.047593974 -0.043747082 -0.065211274 0.13148415 0.002675695 -0.11391205 -0.19068377 0.038454656 0.44033664 -0.17416 0.20440008 -0.06686533 -0.107308835 -0.02994668 -0.17096063 0.057307057 -0.052212656 0.19738242 -0.179962 0.17767546 0.17821784 -0.0827012 -0.21424292 -0.13061915 -0.015985161 -0.27926922 0.007103347 -0.440849 -0.3991156 -0.2123767 0.063778564 -0.046360362 -0.22671804 -0.14835218 0.12026522 -0.38624915 -0.19793802 -0.5845976 0.113487676 0.561083 0.06684574 0.12037679 0.2657194 -0.02673572
132 0.07479818 0.0047553843 0.020671597 -0.07700008 -0.0644837 -0.10605025 0.047369663 0.051931717 -0.23386881 -0.36348853 -0.030993896 0.18911685 0.035625603 0.13796185 0.094583 -0.17549095 0.2272728 -0.08427651 0.27454063 0.091759324 0.00919356 -0.08964854 -0.027633289 -0.08472783 0.0677089 -0.13369821 -0.06394968 0.006397247 0.27909967 -0.15272008 0.031539705 -0.29756185 0.006104879 -0.0011532777 -0.18105642 0.32547563 -0.041890822 0.23073032 -0.21283707 0.17857751 0.16697071 -0.049859148 -0.0658429 -0.049211074 0.039646324 -0.29977208 -0.047087535 -0.40755168 -0.26363555 0.006511112 0.12571982 -0.10802128 -0.3394606 -0.047546875 0.19095784 -0.39504173 -0.18760462 -0.48196054 0.029138599 0.5213245 -0.058488816 0.007476748 0.3678397 0.20703186
39 0.07805744 0.20328918 -0.14146128 0.03954324 0.022344237 0.049304068 0.09238547 0.040274143 -0.12959948 -0.16545385 -0.12340929 0.015925853 -0.04536005 0.07497007 -0.06006474 -0.013477873 0.13754201 0.0078804325 0.21429545 0.13508198 0.011620219 -0.14036582 -0.07031675 -0.14888997 0.061201688 -0.18870814 -0.16546212 0.028086128 0.4753868 -0.28262535 -0.024140246 -0.035873275 0.003699678 -0.06844322 -0.07790782 0.13962719 0.08447475 0.25958878 -0.28613293 0.06679599 0.124604 -0.01938265 -0.17659955 -0.14615676 0.07804032 -0.30616024 0.08422939 -0.33054358 -0.2283965 -0.20157184 0.10838977 -0.05103763 -0.16865742 0.008062234 0.05955903 -0.45433408 -0.27333513 -0.40343285 0.041982565 0.64899254 0.06222599 0.048487127 0.3211379 0.04896395
38 -0.008558404 -0.09272891 0.10007761 -0.115584195 -0.21807024 -0.1356352 0.060824696 -0.07828926 -0.06666824 -0.3094392 0.015251745 0.21827187 0.11534806 0.15042648 0.1944112 -0.21559472 0.13150993 -0.062626936 0.12008962 0.119927 -0.080551915 -0.025136039 -0.12291396 -0.02379783 -0.02642308 -0.34139028 -0.013301352 -0.10961791 0.3345334 -0.025888547 0.21239701 -0.026587868 -0.17296943 -0.06569168 -0.24069588 0.07526089 -0.018488005 0.26164705 -0.23700632 0.24429446 0.0778474 -0.07769085 -0.031358432 0.10183847 -0.06966013 -0.26844054 0.026302457 -0.38647237 -0.21273436 -0.13030198 0.23294593 -0.032642376 -0.24327826 0.055497613 0.09391343 -0.43715587 -0.2360966 -0.38748914 -0.040744085 0.73811066 -0.115432434 0.07437447 0.5680084 0.06926911
275 0.026412485 -0.018094074 -0.039469395 -0.13547693 -0.187899 -0.068709366 0.10823728 -0.19548762 -0.14211309 -0.34247196 -0.0038376239 0.074728474 0.12734443 0.11658228 0.13452624 -0.016658125 0.20824403 -0.10244191 0.19012423 0.2587116 -0.08493059 -0.0045124916 -0.10739782 -0.00032871097 -0.07984917 -0.23784836 -0.015022808 -0.10083577 0.33777642 -0.11379826 0.07121521 -0.1836442 -0.08990987 0.034768768 -0.12897512 0.15320994 -0.019785693 0.3048994 -0.22945048 0.16426802 0.11139641 0.031727817 -0.101383865 0.04092899 -0.009447909 -0.15175481 0.001554526 -0.56149775 -0.087515436 -0.14301187 0.15017878 -0.03259576 -0.32039985 -0.05609987 0.0148278205 -0.4446674 -0.24072897 -0.44774276 -0.0031852315 0.6453683 -0.0916911 0.16836146 0.38959992 0.16450727
199 -0.07152723 -0.05554589 0.07325887 -0.22549169 -0.098133214 -0.07318145 0.068957105 0.0030990494 -0.1326889 -0.3684044 -0.024455784 0.075632505 0.035132125 0.0011329938 0.09997979 0.022315362 0.23522586 -0.049994208 0.13999596 0.118535176 -0.09363473 -0.048512746 -0.093033746 0.10933519 0.07512753 -0.16703664 -0.15955128 -0.06254762 0.31603047 0.0053293994 0.15501757 -0.17887539 0.10000007 0.09852889 -0.11632762 0.13387215 -0.18611717 0.2445497 -0.21863574 0.13842295 0.07074453 -0.022754256 -0.11145916 -0.067707814 -0.020574342 -0.27644908 -0.12819561 -0.458512 -0.29920375 -0.009284115 0.1504846 -0.052574765 -0.3968373 -0.022716632 0.14218067 -0.3793804 -0.16516231 -0.4465297 0.11371815 0.6958953 -0.05621914 0.15957867 0.30854407 0.019607646
620 0.028052952 0.038577765 -0.07102098 -0.08010976 -0.1026794 -0.05004646 0.11942044 0.15359409 -0.1812223 -0.35789555 0.12199968 0.023428276 -0.07497974 0.007645271 -0.20642436 -0.02116221 0.12580207 -0.036958933 0.034641434 0.0014833737 -0.08158466 -0.008281075 -0.011153304 0.1855934 0.030165214 -0.059836954 0.016155731 -0.04658096 0.48619714 -0.11972691 -0.010477921 -0.040985327 -0.079043515 -0.016007472 -0.03587815 0.20259733 -0.035813514 0.16599746 -0.14364977 0.22510852 0.24589255 -0.020812465 -0.26106465 -0.09693376 0.11394835 -0.31383544 0.08522847 -0.4287696 -0.52624184 -0.22245756 0.09925353 -0.042728536 -0.27134886 -0.24956714 -0.056842934 -0.31002435 -0.15938097 -0.42365387 0.07928403 0.6209153 -0.0047863023 0.22041419 0.2813572 -0.034907132
244 -0.107439406 -0.079467475 0.10514184 -0.2994164 -0.13684739 -0.01898218 0.010258124 0.05112229 -0.07743 -0.3836528 -0.06477754 0.20270406 0.09187769 0.20181042 0.06890426 -0.11860681 0.24039358 -0.13859908 0.22219624 0.24422923 -0.16808242 -0.008943385 -0.28549635 0.051241778 -0.053055834 -0.23298457 -0.042191695 0.010859902 0.21611756 0.005948084 0.071872085 -0.21726462 -0.075997576 0.07268996 -0.19387542 0.1598479 -0.12351947 0.33648193 -0.23601736 0.27956587 0.16927122 0.10984693 -0.10498814 0.07279172 -0.08772809 -0.19098522 -0.013865343 -0.4770651 -0.2899437 -0.10722241 0.057966076 -0.07060167 -0.31186238 -0.008110937 -0.00096740626 -0.36042818 -0.32533368 -0.44819131 -0.0010749734 0.6831817 -0.047071606 0.0635489 0.37859294 0.078764215
282 0.07065165 0.12087535 -0.039021965 -0.011726808 0.092663094 0.022490958 0.3065519 0.2362837 -0.06674076 -0.37828082 0.08507166 0.08366427 0.011204068 -0.10161382 -0.18089485 -0.037354622 0.22992656 0.15576784 0.055783898 0.09097298 0.0715039 -0.040192015 0.16197282 -0.07416363 -0.0017654866 -0.051697973 0.031650074 0.017306533 0.4705764 -0.0021177859 0.006399024 -0.039517988 0.06659136 -0.1968423 -0.12616307 0.12675449 -0.0806719 0.16968812 -0.21244974 0.19098435 0.08535887 -0.1384576 -0.25471237 -0.118672796 0.21357143 -0.29918316 0.041788742 -0.34697568 -0.27382097 -0.080940515 0.019050227 -0.04360171 -0.10946498 -0.13209443 0.022273807 -0.38534945 -0.083226316 -0.52998513 0.20705463 0.6649143 -0.02694587 0.09577481 0.3564355 -0.047343507
204 0.022874977 0.3542733 -0.13057646 -0.08325922 -0.014320814 0.033097163 0.09426486 0.14270912 -0.19354692 -0.27983114 0.108155236 0.06760933 -0.05959412 0.001377216 -0.17791948 -0.032749265 0.19685085 -0.076573215 -0.04926238 0.21918865 0.04024082 -0.08946811 -0.0009700496 -0.071104586 0.15091373 -0.096232764 -0.1014786 0.119905725 0.4303602 -0.21559615 0.08952379 -0.07270495 0.007012717 -0.1109871 -2.2742843e-05 -0.0012783922 0.0018836954 0.2565914 -0.17839162 0.2632017 0.03918977 -0.12481576 -0.2885109 -0.13846925 0.3862477 -0.15438572 -0.0010942316 -0.40636837 -0.26753274 -0.06743579 0.010395134 0.029367717 -0.18148416 -0.02473474 0.05816934 -0.2671578 -0.21151519 -0.48715875 0.0021431264 0.651133 -0.03863301 0.10438678 0.37012273 -0.08130422
141 0.13939685 -0.11885155 0.052532986 -0.12101819 -0.19050892 -0.055919893 0.13098593 -0.0066801505 -0.13326189 -0.41077682 -0.028012913 0.15152538 0.072613835 0.032514952 0.17854762 -0.12576802 0.12414959 -0.14165303 0.27547216 0.063962795 -0.0061058076 -0.05257938 -0.19696417 0.011948491 -0.13971128 -0.35832876 -0.03988429 -0.035405077 0.3586578 -0.13123141 0.07216697 -0.22455859 0.030615645 -0.119960964 -0.25285676 0.2176944 0.032801952 0.29876053 -0.22279648 0.16093908 0.010311879 -0.037159916 0.038703565 0.033750415 0.15850055 -0.05029666 0.06289565 -0.51681304 -0.18226454 -0.03843352 0.26539135 0.019520992 -0.266471 0.0029194946 0.0337211 -0.5239821 -0.2655595 -0.44648528 0.09404821 0.5670134 -0.042430624 -0.097824514 0.40105477 0.14379725
281 -0.0105564445 0.14095147 -0.1417695 0.101647414 0.026288006 0.02376916 0.22851099 0.1660905 -0.11524477 -0.12422835 0.10986099 0.059918597 0.069483474 0.11923322 -0.1566209 -0.08492714 0.18302204 0.0055256784 0.009014281 0.14406005 -0.07903086 -0.17724055 -0.06999301 -0.038046088 0.083112314 -0.18522766 -0.16345374 0.083250366 0.4522207 -0.12277437 -0.05338665 -0.10299503 0.011041494 -0.06813301 0.07292342 0.106796645 0.044963818 0.23165669 -0.24990289 0.33189276 0.03573966 -0.078181624 -0.2519001 -0.2197164 0.19970307 -0.2563936 -0.02329235 -0.18056194 -0.353179 -0.117747664 0.084133394 -0.13978751 -0.18134323 -0.17883849 0.048343156 -0.3885651 -0.22197814 -0.47609162 0.02443802 0.64543974 -0.04291165 -0.08521342 0.3773871 -0.078596935
45 0.0068255314 0.12747006 0.018162392 -0.24037272 -0.13437085 -0.1387105 0.07104108 0.15967426 -0.12923814 -0.38913536 0.06960792 0.104912564 -0.12709941 0.13541868 -0.091655456 -0.06868339 0.18116893 0.04726849 0.004047552 0.07862941 0.09363977 0.024536187 0.044392996 0.0039615384 0.06505109 -0.22883022 -0.25697032 0.02564506 0.3775955 -0.1716745 0.12890247 0.016810363 -0.004220742 -0.032675784 -0.15283571 0.061316427 -0.10527477 0.23383056 -0.15483707 0.24085514 0.16906282 -0.08526957 -0.21998926 0.0050245295 -0.047460176 -0.2891367 0.0027018096 -0.358118 -0.33196273 -0.20551121 0.15118659 -0.11606528 -0.22528064 -0.025196541 0.027626894 -0.42807084 -0.18790656 -0.51613235 0.003556384 0.6141542 0.02758467 0.19553271 0.21982116 -0.061511
18 -0.08093266 0.0063261823 0.023639683 -0.22860722 -0.12312154 0.0072623547 0.18399228 0.10999587 -0.053200524 -0.25832918 0.1885419 0.081700645 -0.092806 0.07451571 0.10261236 -0.02950505 0.14606985 0.013692775 0.08693465 0.23302431 -0.013243091 -0.00774201 -0.05478671 0.08799299 0.087187946 -0.13936748 -0.08824807 -0.032349855 0.46590167 -0.020483088 0.20644906 -0.14106949 0.00014695973 0.030781737 -0.2147977 0.14511287 -0.17504284 0.23040219 -0.24413502 0.112555884 0.09067215 -0.083877996 -0.10869846 -0.062977426 -0.072453104 -0.3482106 -0.0839034 -0.34993201 -0.159599 -0.049701072 0.13452634 -0.08003366 -0.26976392 -0.06583868 0.025860948 -0.4831055 -0.28334036 -0.58696175 0.11723094 0.6505542 -0.020133985 0.19425443 0.17009476 0.12116733
675 -0.029492654 0.13323957 -0.14958498 0.030902486 0.017989596 -0.07428793 0.31959146 0.22442192 -0.17751485 -0.32150027 0.18581262 0.102523625 -0.21421923 0.03716648 -0.050836746 -0.08390311 0.08813895 0.123716414 0.03511197 0.30854842 -0.038423494 -0.015335039 0.036543667 0.09410725 -0.001958778 -0.17709738 -0.11603963 0.04305057 0.3868069 -0.13490945 0.07845042 0.038583282 0.010265951 0.013750987 0.05641802 0.06747475 -0.1170521 0.12526578 -0.23565403 0.25353563 0.19330621 -0.20175894 -0.19234617 0.034638733 0.19617334 -0.29827622 0.05925961 -0.38099292 -0.24826732 -0.068819724 0.10249009 -0.1193955 -0.15340038 -0.26562485 0.012804472 -0.4574698 -0.23088026 -0.49899054 0.04874982 0.6162001 0.014644156 0.096969955 0.24557462 -0.04501543
201 -0.040024515 0.36646453 0.0047503314 0.1510429 0.18896635 0.039335553 0.076326326 0.14314882 -0.15735447 -0.30209175 0.08257042 0.038421717 -0.057795897 0.020600174 -0.21496008 -0.1085931 0.18564114 0.020034226 -0.13546145 0.071314104 -0.04054226 -0.051547248 -0.025045922 -0.01716908 0.002330182 -0.105414875 -0.0631918 0.051099088 0.41547567 -0.068960994 0.105526276 -0.08784807 0.10232513 -0.014958303 0.051587652 0.08205997 0.024009725 0.3836989 -0.27814618 0.36373025 0.10892964 -0.1378973 -0.32020417 -0.14155337 0.37412533 -0.2734396 0.019888079 -0.28458756 -0.09470416 -0.08947505 0.1338686 0.04482886 -0.22653486 -0.24798837 0.19086416 -0.28638604 -0.17504519 -0.4559417 0.0058763106 0.65762603 -0.08517013 0.052490067 0.44381654 -0.06984624
205 -0.025378292 0.122807436 -0.1737027 0.025617007 0.032027245 -0.024872486 0.060287543 0.09832649 -0.16523841 -0.18345276 -0.018722767 0.16761534 0.0013256923 0.096393764 -0.031457525 0.033855297 0.15764178 -0.1277036 0.033813532 0.13643566 -0.043345157 -0.21087138 -0.05669533 -0.020125194 -0.01295392 -0.08055842 -0.10942178 -0.03542627 0.3765294 -0.22170502 -0.063266024 -0.055991504 0.019221088 -0.07017928 -0.13812484 0.15073453 0.017037455 0.33592492 -0.19305173 0.24766731 0.00044659013 -0.0797799 -0.11462077 -0.20878643 0.2784912 -0.29863298 0.041211963 -0.36121216 -0.26031026 -0.06553383 0.05240702 -0.15898354 -0.109400794 -0.22679432 0.018246727 -0.414018 -0.14031449 -0.52149904 0.13528067 0.59221447 -0.03398061 0.09377512 0.3382234 -0.11213071
228 -0.15400046 0.12990108 -0.037623808 -0.10450255 -0.2047838 -0.04340578 0.1669804 0.05957909 0.053663757 -0.36744538 0.03015238 0.0012182022 0.018397344 0.056418642 0.0076893144 0.052148044 0.15804526 0.012046097 0.0739306 0.08684463 -0.071625896 0.012976828 -0.119981825 0.077007845 0.040309213 -0.18607657 -0.099034026 0.060886636 0.5051325 -0.058228027 -0.032227702 -0.08388126 -0.0017066956 0.003828466 -0.0917106 0.096358314 -0.12693481 0.28685066 -0.111081615 0.19457039 0.20539518 -0.11187603 -0.09236876 0.12483313 -0.11756387 -0.29848292 -0.047013063 -0.34765616 -0.35966042 -0.1238599 0.085110925 -0.057006475 -0.41525266 -0.043451443 -0.025553001 -0.37994117 -0.2407428 -0.62834847 0.08602599 0.5756407 -0.0093959 0.14700677 0.29993987 0.06933103
172 0.016048644 0.1580042 -0.14376642 0.011390529 -0.018752912 -0.114692904 0.16306946 0.17138924 -0.11088632 -0.33435103 0.08471659 0.016488526 -0.096658155 0.048949365 -0.18099752 -0.012657048 0.08322879 0.0867318 -0.012779025 0.26851225 -0.05761059 0.08968063 -0.09222125 0.05649063 -0.07191942 -0.041916616 -0.19419403 -0.039533366 0.5134127 -0.13608749 0.015886571 -0.0021127898 0.049161177 -0.048193567 0.040848076 0.118451424 -0.10309909 0.1496558 -0.22916357 0.27707005 0.10583769 -0.008671497 -0.23965225 -0.13912444 0.108700514 -0.29517826 0.05049217 -0.41671965 -0.2965003 0.00089473807 0.018703751 -0.026076196 -0.21822955 -0.18240401 -0.2718493 -0.36560258 -0.1939798 -0.42896447 0.1351649 0.65138537 -0.09445183 0.15167859 0.35346213 -0.07621174
176 -0.07106039 0.22133298 -0.14305508 -0.123583026 0.06895283 0.03775067 0.24595287 0.097231045 -0.27188972 -0.22837795 0.035397362 0.15779679 -0.14164558 0.0023221364 -0.07893693 -0.014634784 0.093938254 0.09363964 -0.11358143 0.26551294 0.0072013545 0.11723843 0.06116347 -0.026678456 -0.04287745 -0.12583221 0.019736879 0.13293608 0.613255 -0.10605092 -0.028579917 -0.0008865865 0.07222856 -0.100884646 0.008811552 0.10170618 -0.111177534 0.21008234 -0.21440311 0.3527538 0.10193043 -0.0004124157 -0.3170782 -0.089090616 0.20893921 -0.24684699 0.09341063 -0.32162052 -0.300866 -0.19775996 -0.042429306 -0.06018412 -0.2471605 -0.13095874 -0.0005160696 -0.3860618 -0.11595986 -0.44528452 0.06445556 0.6181407 -0.0025426361 0.02074981 0.26420414 -0.040632736
499 0.13705607 -0.11015746 0.15339927 -0.2436619 -0.2122488 -0.08216943 0.07003712 -0.12935425 -0.096866995 -0.3284512 0.0015069774 0.12005452 0.12154761 0.06441057 0.20216903 -0.13825549 0.14283934 -0.13232496 0.27132297 0.15981248 -0.061852764 -0.07374379 -0.17803448 -0.051807318 -0.023336334 -0.19131511 -0.035458677 -0.1423406 0.29934454 -0.013890013 0.092782356 -0.24966694 -0.27953032 -0.035729345 -0.22466546 0.13800734 0.009185313 0.40599442 -0.15655707 0.24050613 0.1294058 -0.019342858 -0.04556191 -0.112959065 0.02313269 -0.26043147 0.041908946 -0.45989403 -0.18358104 -0.11926574 0.24065156 -0.01749238 -0.26254806 -0.008245505 0.087294556 -0.37028676 -0.22064982 -0.45620546 0.039318167 0.6883425 -0.028630998 -0.05134914 0.49987844 0.10689706
314 -0.05105846 0.09733314 -0.02645457 -0.16971055 0.094759576 -0.0061369683 0.1583449 0.21743813 -0.18716715 -0.3118827 0.013345327 0.006881897 -0.09310191 -0.057405528 -0.23405547 -0.043997858 0.19720949 0.04167352 -0.042051256 0.20433903 -0.03608808 0.094329715 -0.050231885 0.055696614 0.009259186 -0.1603876 -0.1279687 0.064463094 0.5227257 -0.19517492 0.03121991 0.03914558 0.07603137 -0.10420155 0.0743109 0.18792413 -0.09018093 0.23400283 -0.15262946 0.36989462 -0.026544675 0.029695401 -0.30776498 -0.15554929 0.24233197 -0.2155694 0.05321099 -0.33963534 -0.22546433 -0.08751188 0.053039264 -0.050395425 -0.052483797 -0.076983646 0.0078700455 -0.3022047 -0.16469657 -0.5274631 0.06901983 0.6982491 -0.04664003 0.06927136 0.2966741 -0.21307458
170 -0.13810934 0.105536886 0.055328343 -0.17426267 -0.2629148 0.018796477 0.1130535 -0.12362211 -0.06632006 -0.33918267 -0.028051777 0.07879822 0.07674158 0.07275136 0.03758732 -0.04638962 0.11078095 -0.0015596825 0.034800228 0.20757677 -0.019169008 -0.0081410855 -0.08917585 -0.08105412 0.015938448 -0.29322472 -0.16534822 -0.090449356 0.37067568 0.03863448 0.059623145 -0.16625495 0.028266542 -0.010199224 -0.22535113 0.13115029 -0.097791985 0.21841092 -0.17054442 0.26229015 0.18963979 -0.04997169 -0.20083623 0.033221453 0.021548439 -0.27907363 -0.11808269 -0.40447107 -0.272823 0.00045586575 0.09791436 0.057311147 -0.41991225 -0.060910318 0.013686006 -0.38343084 -0.22112642 -0.5884736 0.14835177 0.6294697 -0.029267574 0.16727526 0.15655622 0.04657893
250 -0.0137764495 0.0046434836 -0.013016286 -0.23179807 -0.21086305 -0.036084816 0.021217551 0.01826521 -0.0031910639 -0.4064524 0.013605369 0.14789304 0.18996918 0.061216917 0.11275682 -0.06670267 0.13190643 -0.091819614 0.308515 0.12561192 -0.053993315 -0.110069625 -0.24000281 0.006768984 -0.14070149 -0.26675978 -0.1085101 -0.026801364 0.17722948 -0.00903808 -0.0037218812 -0.12810344 -0.16909769 -0.015044892 -0.37021965 0.18217333 -0.09974139 0.23358598 -0.35352108 0.24762407 0.08310095 -0.04185378 -0.069571525 0.010020091 -0.024648944 -0.2913168 0.0023009244 -0.549036 -0.098157845 -0.066482745 0.13546148 0.04166987 -0.34496826 -0.0817663 0.1025477 -0.45864776 -0.1213799 -0.5114332 0.020828102 0.63015425 -0.010845511 -0.062773496 0.48507518 0.23873565
252 0.015561715 0.2954924 -0.21002205 0.080710195 0.08786698 -0.06802859 0.1275028 0.15337332 -0.15737902 -0.13316594 0.075848565 0.17425022 0.13058607 -0.03399747 -0.09087918 -0.12353733 0.19655906 0.01814211 0.003687832 0.07930443 -0.008681132 -0.0148742525 -0.08602479 -0.010650222 0.08707185 -0.1430124 -0.10259649 -0.03509432 0.48319277 -0.1557152 0.019463839 -0.00023118072 0.15079106 -0.08042909 -0.037877712 0.20784229 0.13738723 0.31356606 -0.31535628 0.23051149 0.09285982 0.016655562 -0.240765 -0.005523898 0.17998086 -0.2376925 0.0016443359 -0.30540752 -0.14977641 -0.09894775 0.012116103 -0.13126366 -0.24488348 -0.24725021 0.008695995 -0.4388543 -0.09219243 -0.27258298 -0.008982641 0.74817103 -0.14472619 0.03418862 0.32344678 -0.059448652
98 -0.11070479 -0.049286783 -0.007839871 -0.19829711 -0.11362152 -0.07410396 0.14622198 0.013834077 -0.17395808 -0.3398738 -0.07700276 0.2906569 0.08893572 0.2553004 0.14235422 -0.23006183 0.1520025 -0.037701946 0.17883758 0.22276247 -0.17548895 -0.055750906 -0.051486474 0.026223436 -0.020588836 -0.27235126 -0.06361457 -0.21269451 0.40688777 -0.041972548 0.16116025 -0.119255476 -0.22291867 -0.063271135 -0.13392018 0.19224438 -0.036909387 0.17992485 -0.16973245 0.14650293 0.12634867 -0.110018656 -0.070417516 -0.0019576529 -0.061989665 -0.29518828 0.07456006 -0.44064763 -0.15120043 -0.097682476 0.12497928 -0.0657447 -0.21892634 -0.06321899 0.06658271 -0.39241347 -0.22920834 -0.4630762 0.048136566 0.7173515 0.05042573 0.014874809 0.32438383 0.1575117
96 0.011197593 0.0015075251 -0.05478626 -0.1662378 -0.11704613 -0.05426449 0.05565905 0.025394972 -0.11245041 -0.20959704 -0.12239534 0.16695547 0.124014564 0.0957973 -0.027357612 -0.20259307 0.06479912 -0.073759854 0.26230052 0.24620976 0.036198344 -0.054343395 -0.12065053 0.03693227 -0.19762133 -0.1886764 -0.030318521 -0.1604172 0.2454562 -0.18138808 -0.012612886 -0.15408167 -0.013205375 -0.030234693 -0.0828677 0.06930096 -0.0119244335 0.36918247 -0.2155623 0.05670325 0.20896998 -0.12598258 -0.060788486 0.06953942 0.042790756 -0.17430115 -0.05096948 -0.3600112 -0.25312647 -0.11086395 0.07017582 -0.10867724 -0.39645234 0.069191076 0.18422951 -0.4434744 -0.20578612 -0.4728286 0.01775155 0.67367166 -0.16172424 -0.009217483 0.49257842 0.11745132
230 -0.057720244 -0.166729 0.122274 -0.17571518 -0.14390141 -0.080745 0.13122317 0.050015684 -0.13031562 -0.35007957 -0.104678854 0.107691176 0.06767843 0.123473324 0.04753032 -0.137109 0.2247895 -0.15923487 0.21011525 0.115126096 -0.027049739 -0.038262684 -0.1493835 0.047008146 -0.116322905 -0.23472017 -0.005218414 -0.046821654 0.22740984 -0.0056280615 0.20531814 -0.17734015 -0.0632938 -0.13175108 -0.20067534 0.09664005 -0.101670146 0.35391957 -0.17595753 0.21153371 0.12899213 -0.11007451 -0.018830627 0.06701608 -0.06851337 -0.18736738 0.012116835 -0.41280583 -0.24252 -0.102073774 0.107091956 -0.23913458 -0.34665656 -0.102602124 0.011953262 -0.46652544 -0.2211492 -0.5596915 0.049937796 0.68530965 -0.15328127 0.07864908 0.28128883 0.15842086
64 0.17269428 0.056288294 -0.035632838 -0.22635609 -0.101806216 -0.054085504 0.20721781 0.026098011 -0.06918124 -0.37175342 0.08753805 0.07506501 -0.053652465 0.07107121 -0.12382333 0.03141816 0.15369232 0.036357444 0.060313027 0.051576056 0.15478984 -0.0020010243 0.10765724 0.07274459 0.020839896 -0.11264838 -0.1196966 0.052045897 0.49829128 -0.058661453 0.13317662 -0.19735526 -0.03612155 -0.14074075 -0.074248366 0.043781906 -0.073868625 0.2551224 -0.16031154 0.20815998 0.14282659 0.020551689 -0.10540223 -0.09062358 -0.033763696 -0.2658051 -0.0348301 -0.36446556 -0.27321035 -0.16606686 0.06610242 0.060564376 -0.42364538 -0.15575857 0.07233796 -0.48635292 -0.29749137 -0.49340755 0.07334671 0.576301 0.03829901 0.13488756 0.22893462 0.03988839
148 -0.0065717557 0.26480964 -0.06487675 0.00846943 -0.028914656 -0.14628276 0.09789339 0.28345034 -0.09904488 -0.13391538 -0.037841525 0.20329623 -0.120727815 0.05329924 -0.10613116 0.103119045 0.23218375 0.09561246 -0.050496172 0.19522962 0.011774333 -0.004674502 0.018577553 0.042599633 0.10137404 -0.053924095 -0.13968284 0.075873934 0.5309369 -0.07236025 0.098269515 0.094688095 0.08037189 -0.078378245 -0.020673394 0.10390494 -0.08947397 0.14249878 -0.22973393 0.28079447 0.072842985 -0.17039162 -0.23683085 -0.110841215 0.11321301 -0.26082778 -0.023947852 -0.34672225 -0.21277645 -0.08281913 0.084795475 0.0025244912 -0.2002558 -0.18912737 -0.06752416 -0.3933888 -0.17481391 -0.42950922 0.12613465 0.6928699 -0.060864247 0.0808719 0.4218842 -0.019315299
222 -0.065084055 0.092634216 -0.10358308 -0.13035697 -0.01601621 -0.16858879 -0.008267674 0.08352524 -0.21107234 -0.40296426 0.17739359 0.04960118 -0.16168432 -0.015900744 -0.122319266 0.15232679 0.06299308 0.16144769 -0.015345219 0.20369346 0.12199937 0.0033748718 -0.022862034 0.12129381 -0.002811674 -0.0842422 -0.12750386 -0.01801061 0.4707995 0.088052504 0.15558742 0.016229441 -0.0015202451 -0.1135883 -0.04794023 0.11909444 -0.020254057 0.22472996 -0.3102698 0.2026559 0.113218114 -0.13372372 -0.21023233 0.06298333 0.111623645 -0.24023098 0.018355759 -0.35804033 -0.37779126 -0.1155892 0.0038566308 -0.095880285 -0.22268672 -0.13561094 0.078173585 -0.46849614 -0.24045599 -0.5038352 0.10307983 0.5608768 -0.108092204 0.20256828 0.34766674 -0.08115636
99 0.0795205 -0.15206578 -0.038867913 -0.2772341 -0.08889725 -0.060947392 0.09745396 -0.061965253 -0.0032403565 -0.29552287 -0.07551211 0.17288011 0.112511985 0.13123372 0.11484446 -0.14460137 0.14040428 -0.14190067 0.21304086 0.1577816 -0.031375945 -0.17402947 -0.15458108 0.05402955 -0.16522484 -0.3568314 -0.04603485 -0.013086648 0.33347207 -0.079859324 0.023596307 -0.07490462 -0.19098814 0.004823574 -0.28367606 0.28357753 -0.08596091 0.29971692 -0.23520306 0.10624461 0.04392634 0.006128294 0.02238679 -0.041162115 0.06694206 -0.14438787 0.009102574 -0.30636632 -0.2310568 -0.07186623 0.19634043 -0.11217862 -0.31733695 -0.20104714 0.15627877 -0.4752455 -0.21618706 -0.43244913 0.035157725 0.6339604 0.034317978 -0.02616391 0.5534682 0.107969664
296 0.029948048 0.121864475 -0.23849462 -0.017799834 -0.0976288 0.110970214 0.12174527 -0.06169205 -0.19901863 -0.20663579 -0.015417561 0.078095004 -0.011053494 0.018149521 0.00806447 -0.1453909 0.17447801 0.03884047 0.02840617 0.097677305 0.017655438 0.007696575 -0.013160339 0.028939744 -0.08264966 -0.098720774 -0.19266966 0.052378885 0.42364976 -0.16871843 0.03218419 -0.04189918 0.11276422 0.063505396 -0.22196366 0.15259662 0.15749745 0.2911425 -0.2905128 0.18989758 0.23241915 0.0024970046 -0.16437386 -0.21471816 0.18119611 -0.3156523 -0.061049994 -0.2865897 -0.22214928 -0.09763077 0.08152452 -0.041793976 -0.29296428 -0.04624112 0.097503595 -0.41290304 -0.21438245 -0.34571186 -0.09952794 0.6828356 -0.012802423 -0.005367314 0.32511675 -0.15022114
22 0.03790048 -0.16198535 0.049903776 -0.20258063 -0.1606339 0.17092133 -0.06747203 -0.012954017 -0.083662994 -0.25044435 -0.030005343 0.17439145 0.004504345 0.10626777 0.20571642 -0.021813584 0.1338588 -0.22292976 0.2882189 0.27033612 -0.04850748 -0.13635269 -0.24467991 -0.08608447 -0.07947103 -0.2715052 -0.0045947307 -0.042037442 0.25175044 -0.10653124 0.17875852 -0.24092455 -0.1534355 0.049626302 -0.122083776 0.2636651 -0.08005125 0.23138893 -0.2787118 0.23057489 0.13850135 -0.11636989 -0.011933048 0.062050555 -0.012333213 -0.045772944 0.031649992 -0.37525007 -0.20638826 -0.16796912 0.15212195 -0.04326648 -0.31021267 -0.08084202 0.10940565 -0.4837391 -0.12326771 -0.5563581 -0.057826202 0.7584774 0.037712142 -0.016918238 0.45504054 0.12653333
225 0.06159206 0.14433159 -0.0023287265 -0.2437712 0.033793766 -0.13940856 0.20669268 0.21950854 -0.24272396 -0.20534983 0.037573926 0.052599985 -0.040442117 -0.030731803 -0.108971946 0.002637469 0.11664577 0.08634821 -0.11635205 0.2602034 0.074689396 -0.027134605 -0.13669209 -0.070508644 0.024958298 -0.040199436 -0.04094166 0.13725479 0.6063063 -0.10719627 0.07163243 0.0008633455 0.11161127 -0.15207744 0.081610866 0.110787526 -0.080369405 0.16094877 -0.1803494 0.24842852 0.071905516 -0.087410495 -0.17781012 -0.08343139 0.21405114 -0.21742003 0.036779717 -0.3245117 -0.3113494 -0.18102841 0.016051736 -0.034648802 -0.12330957 -0.13235453 -0.10627132 -0.37096146 -0.16099314 -0.3926932 0.069480784 0.7574134 -0.08224638 0.18138395 0.33344415 -0.06304987
500 0.00043079353 -0.11634712 0.022449939 -0.1416537 -0.26859888 -0.045135416 0.036242194 -0.07229743 -0.16947511 -0.3802213 0.06101102 0.1987787 0.050796516 0.024631556 0.1986353 -0.09380487 0.14444046 -0.07553148 0.21706255 0.09783762 -0.07659888 0.036959283 -0.19307412 -0.07901574 -0.08086019 -0.29098853 -0.049650107 -0.16610454 0.2934333 -0.069764584 -0.013780645 -0.21288973 -0.17357314 -0.077977054 -0.20033564 0.19897294 -0.14552787 0.31159157 -0.2304053 0.26584893 0.12935562 0.035118334 -0.037673913 0.0756792 -0.041907225 -0.20749398 -0.053309508 -0.37549257 -0.24019815 -0.070865385 0.12375634 0.028999774 -0.23572494 0.052338935 0.01597931 -0.5501021 -0.21782838 -0.39737168 0.06450825 0.71456355 -0.08115819 -0.124314815 0.5042303 0.12472333
198 0.034729254 -0.01781791 0.1619323 -0.18091531 -0.23451671 0.011299732 -0.029544448 -0.21469066 -0.074969456 -0.29867443 -0.09458358 0.22107913 0.050520603 0.011311786 0.15519135 -0.16979775 0.23478395 -0.16137058 0.13941051 0.19868495 -0.08390528 -0.028112449 -0.13746381 -0.005948024 0.019121466 -0.3337802 0.065496616 -0.15535526 0.20828225 0.0435913 0.0027259097 -0.21703114 -0.08909063 0.008673619 -0.26455384 0.17478326 -0.0752678 0.3156391 -0.3086648 0.25462487 0.085306056 -0.015398059 0.022247788 0.07199392 0.0055173845 -0.28030345 0.12417367 -0.33091116 -0.26863256 -0.08610893 0.26581952 -0.023487726 -0.27666232 -0.0678658 -0.046847872 -0.40108037 -0.23447861 -0.50282866 -6.454279e-05 0.6766412 -0.06833432 0.023724781 0.58249456 0.16886993
23 0.10598193 0.08190953 -0.038023423 -0.06575366 0.06348161 -0.16594867 0.1467964 0.12003427 -0.08371765 -0.23900072 0.11247139 0.13460068 -0.113587886 0.07963085 -0.14593159 0.025093427 0.280904 0.07838068 -0.0036068163 0.1904341 0.10964227 0.040159687 0.09283359 -0.05853091 0.02555192 -0.040346153 -0.11616166 -0.020161657 0.5752457 0.028740434 0.043103684 0.12613127 -0.059604637 -0.010543566 -0.028392043 0.18483515 -0.0207234 0.24711736 -0.1884514 0.19557926 0.14007331 -0.04996469 -0.17402801 -0.08491555 0.024976196 -0.38209945 0.00373589 -0.43687174 -0.17627418 -0.1797939 -0.07424901 -0.06460918 -0.25740948 -0.12353878 0.009174094 -0.30359024 -0.27657568 -0.45443466 0.09033546 0.6664521 -0.057822373 0.19817877 0.35080567 -0.050939813
60 -0.060924005 -0.048583798 0.16308358 -0.19661908 -0.08745298 0.04479119 0.089892596 -0.10510752 -0.08754162 -0.3371379 -0.05525017 0.15207745 0.08979352 0.2586949 0.19268298 -0.1837442 0.35600698 0.0067307856 0.115860045 0.18367153 -0.008752825 -0.16669142 -0.18993916 -0.1446061 -0.05756519 -0.21721059 0.110857345 0.0009718106 0.24261902 0.048008684 0.30270332 -0.23903202 -0.22909173 0.016161446 -0.1949711 0.19478036 0.03037317 0.28380015 -0.13404904 0.22216035 0.14211713 -0.029547747 -0.035672378 -0.066244006 -0.033451814 -0.18921943 -0.08511215 -0.46602303 -0.19581895 -0.07425594 0.11567313 -0.036453765 -0.32769856 0.0057057133 0.046271633 -0.46537432 -0.1736367 -0.4700185 0.1008299 0.7657494 -0.033051733 0.078346565 0.36548954 -0.028426303
218 0.028798265 0.074553855 -0.012582611 -0.24597217 -0.048980318 -0.18496811 -0.04281233 -0.05965273 -0.012734584 -0.22076471 0.13711467 -0.078817084 -0.05421009 0.09147723 0.021092 0.03892882 0.07269449 -0.01695821 0.08755928 0.18283182 -0.0014678492 -0.020494951 0.03302973 0.1420136 -0.019101445 -0.20700674 -0.04453695 -0.041160848 0.47205192 0.017694553 0.19150415 -0.105368115 -0.011377563 0.13090451 -0.11075996 0.11462348 -0.17147946 0.25329313 -0.1414566 0.18507566 0.07459091 -0.06939753 -0.14301388 0.13148852 0.03423327 -0.2758099 -0.1338314 -0.36095917 -0.4025373 -0.08223329 0.153015 -0.123506516 -0.30128014 -0.10346345 -0.029736035 -0.42392167 -0.21715187 -0.57703954 0.1490764 0.7123104 -0.07024263 0.19231036 0.2342019 -0.08726539
272 -0.041426584 0.016739788 0.15125625 -0.2526449 -0.198507 -0.091898404 -0.009279919 -0.12192631 -0.17695118 -0.48812762 -0.048524342 0.24020779 0.020726426 0.18221349 0.17810428 -0.09107826 0.12670776 -0.11075312 0.18832453 0.2329277 -0.102999434 -0.043322504 -0.19765653 -0.06959895 -0.0012154378 -0.33124694 -0.03422449 -0.05570213 0.3100293 -0.06782585 0.09267484 -0.14847158 -0.16455118 0.039582368 -0.24426429 0.1495198 -0.041527066 0.34633845 -0.19177717 0.2070899 0.09991826 -0.06770113 -0.03683201 -0.058223415 0.016741036 -0.107659675 -0.00856506 -0.47424403 -0.24389087 -0.0024210701 0.15913567 -0.0704434 -0.45036557 -0.039783783 0.018126601 -0.5319826 -0.12698 -0.32675257 -0.104124054 0.62799156 -0.07378396 -0.035369597 0.43244573 0.13335194
303 0.0044525107 0.13018654 -0.08476186 -0.08076497 0.18899104 0.08296715 0.09991827 0.2077714 -0.3784178 -0.31779203 0.06978041 0.02394114 -0.07272212 0.025703846 -0.004236587 0.11678584 0.20116661 -0.01299038 -0.11118776 0.19114181 0.079201624 0.056022037 -0.027945375 -0.03878297 -0.006828384 -0.038422707 -0.06283549 0.2980562 0.50700206 -0.031103142 0.045879677 0.16668455 0.15202361 -0.0924905 0.014993337 0.06972257 -0.038368806 0.17006956 -0.2326328 0.3043977 0.21237312 -0.13726921 -0.24808823 -0.19112417 0.2322607 -0.22263643 0.016277894 -0.32506612 -0.27920607 -0.09289686 0.058439795 -0.021616897 -0.11908931 -0.28431404 0.007790344 -0.359898 -0.15402235 -0.4713014 -0.017655514 0.75489753 0.021361856 0.15319236 0.2978043 -0.035595614
227 0.111103654 0.20371567 -0.101112515 0.009924323 0.08064736 0.007608608 0.2068558 0.20682037 -0.20656712 -0.08058409 0.07442439 0.10981587 -0.020053858 0.03660334 -0.2189578 0.04983222 0.03715855 -0.14859474 -0.11630595 0.25475833 -0.044205297 0.05602155 0.049028795 -0.25230128 0.03372535 -0.12048413 -0.036055822 0.12546888 0.45400986 -0.11048754 -0.030956747 0.11097824 0.13703404 -0.19211917 0.17131528 0.14932209 -0.10462046 0.31076574 -0.16078037 0.21355163 0.03173397 0.003381635 -0.23832479 -0.25684807 0.41606593 -0.31770954 0.12962174 -0.25597066 -0.22589932 -0.15025584 -0.056516413 0.020979095 -0.14222118 -0.13000385 0.008755899 -0.3760342 -0.07916181 -0.5344169 0.11678685 0.8020006 -0.08041518 0.23102134 0.51288456 0.021998176
152 0.023746308 -0.054224707 0.09719944 -0.17425591 -0.07889865 0.012597322 0.08657787 -0.006304308 -0.08541507 -0.3334663 -0.044292644 0.035355136 0.082203634 0.12590653 0.14018135 0.0015678146 0.2267584 -0.2339592 0.14123632 0.20611781 -0.1478204 0.05559883 0.022289764 0.06778032 -0.018603321 -0.2691897 0.00442599 0.025308527 0.38446084 -0.046814807 0.115717426 -0.27335134 -0.14320222 0.053489413 -0.24056996 0.2698489 -0.07811221 0.23253226 -0.31327948 0.16279307 0.036014207 0.019700984 -0.07864269 0.018150872 -0.12605105 -0.26517236 0.013747921 -0.37554336 -0.21743189 -0.09767014 0.1646285 0.0055777384 -0.3390057 -0.14759949 0.008486921 -0.45131683 -0.16221829 -0.5971274 0.0040025325 0.67746264 -0.16053388 0.04493896 0.244637 0.26923355
43 -0.0259951 -0.14639495 0.018511504 -0.28047726 -0.22056797 -0.030939864 0.14996876 0.11690232 -0.08807082 -0.25966445 0.06765685 0.022598067 0.03239259 0.08014646 -0.04347897 0.006381694 0.08283803 0.030317314 0.026764512 0.1416611 0.011140438 -0.034220953 -0.044137962 0.07428556 0.072173536 -0.2519139 -0.11636329 -0.084745064 0.32126278 -0.005013606 -0.0014928136 -0.1428144 -0.045365278 0.00052583043 -0.17201854 0.109693296 -0.17503352 0.24256967 -0.14780885 0.25880867 0.11688069 0.018412808 -0.19162744 0.010744068 -0.005141927 -0.2811289 -0.07140027 -0.43161777 -0.20675413 -0.17698236 0.1194685 0.06398363 -0.44383928 -0.0815851 0.0846098 -0.5793202 -0.17404275 -0.47750995 0.07773978 0.7614333 -0.09165922 0.038905032 0.112609625 -0.039368026
224 0.09132142 0.048732042 0.06773806 -0.08790875 -0.12980083 -0.08547577 0.003368976 0.091271296 -0.1172133 -0.2714222 0.10328606 -0.09851775 -0.00016941279 0.038821287 -0.107673965 0.07857491 0.06332194 0.019237965 0.090753935 0.16292036 0.017728359 -0.0020283405 -0.039300457 0.14355674 0.017801985 -0.2355647 -0.12493307 -0.014454453 0.4463766 -0.033810697 0.11014201 -0.1163604 -0.0697032 -0.03081227 0.025848564 0.08366148 -0.03234262 0.1785258 -0.12204321 0.105170056 0.1628123 -0.07766877 -0.14065409 -0.04592913 0.04373612 -0.3043252 0.08178398 -0.46182805 -0.24149193 -0.23562866 0.20577578 -0.17043132 -0.4331688 -0.08928218 -0.0038489162 -0.43718195 -0.26036227 -0.5495577 0.028657803 0.6677771 0.042065665 0.20950186 0.19366585 0.040164433
220 -0.07739885 -0.10388176 0.027976437 -0.1992073 -0.07459877 -0.04802032 -0.054952156 -0.12325213 -0.14774336 -0.33721223 0.031330563 0.15546471 0.00035493108 0.2952955 0.22706391 -0.20878367 0.2005433 -0.25282842 0.23793079 0.14717345 0.1314998 -0.109107785 -0.35367545 0.0351555 -0.09707429 -0.10743401 0.0879844 -0.0756435 0.20904829 -0.05654334 -0.04895807 -0.1430442 -0.11952686 -0.1528474 -0.22287323 0.30791074 -0.011038209 0.3291321 -0.17121549 0.3130896 0.024779385 0.036452048 -0.016564965 0.06573384 0.031557288 -0.22498123 0.03161845 -0.3947184 -0.20427965 -0.032242544 0.0633293 -0.028023733 -0.2949213 -0.05828607 -0.0042403485 -0.54459506 -0.27873576 -0.43417653 0.023293858 0.7435632 0.0018664318 -0.006006936 0.42517105 0.1940551
78 -0.09671858 -0.09582889 0.21485914 -0.21629994 -0.18777254 -0.093539014 0.020217296 -0.078953914 -0.08218974 -0.43506145 -0.046343815 0.20820558 0.16061959 0.22190578 0.11098352 -0.09294948 0.086758144 -0.10699849 0.12822475 0.23189646 -0.08704306 -0.11082347 -0.22718576 0.029431945 -0.029204683 -0.23191665 0.04895699 -0.024183376 0.34501323 -0.002396038 0.07891015 -0.15668896 -0.14465322 -0.01808225 -0.235922 0.081276454 -0.002686839 0.32529446 -0.2037903 0.18109013 0.099819526 -0.03709715 -0.0066482727 0.012121559 -0.09354621 -0.21319664 -0.05372649 -0.5606262 -0.26980478 -0.07151389 0.021224378 -0.02413934 -0.2256453 -0.012426001 0.015431558 -0.44710067 -0.27685803 -0.5348953 0.039974596 0.6333362 -0.0191686 -0.10475113 0.45763943 0.15042338
163 -0.14011368 -0.05873831 0.08460549 -0.2742242 -0.07423734 0.07807854 0.08493738 0.044010594 -0.17833991 -0.29534572 -0.02927953 0.082928106 0.07473101 0.010924267 0.08429844 -0.06884982 0.24894503 -0.066285074 0.11943693 0.17779502 -0.087139234 0.03394337 -0.052432723 0.11045206 -0.062070586 -0.17424823 0.039281655 -0.11131043 0.43350425 -0.079284586 0.22567838 -0.20404294 -0.08717755 0.07340314 -0.078009136 0.047154624 -0.018006943 0.21686918 -0.23772907 0.16142936 0.02648862 0.037335437 0.05128624 0.06639513 -0.0500021 -0.2727363 -0.043433923 -0.45833877 -0.331305 -0.008141259 0.09667287 0.08366188 -0.42086416 -0.030774316 -0.00022115231 -0.44610798 -0.2404225 -0.41334322 0.18645269 0.6749965 -0.04498023 0.08832819 0.43462837 0.022822766
262 0.12857912 0.37813085 -0.19815291 -0.05652057 0.07386752 -0.04054237 0.2001985 0.1883171 -0.2556027 -0.20290543 0.1421399 0.16685596 0.10966755 -0.12724993 -0.2955703 -0.05765883 0.17459609 -0.12795827 -0.08998393 0.2526371 -0.07350167 -0.06892123 0.0387474 -0.15435843 0.1228892 -0.15648969 -0.04287647 0.10159119 0.44448486 -0.064687684 0.119309224 0.17490846 0.11903654 -0.16796495 0.10084414 0.22085035 -0.1256342 0.28203428 -0.13335319 0.291195 0.010410757 0.018781886 -0.2667909 -0.18818764 0.43332788 -0.3681151 0.10261388 -0.27707493 -0.21366717 -0.054967497 -0.027182823 -0.124057375 -0.0421495 -0.1367448 0.04290737 -0.4533933 -0.098456584 -0.4354971 -0.025843525 0.7337514 0.08863292 0.117236026 0.49995324 -0.049602464
125 -0.06645703 0.0029611597 0.05057267 -0.26370847 -0.047321968 0.064132966 0.0867643 0.0468859 -0.018928764 -0.31740898 0.03007716 0.07496644 0.09306942 0.13454889 0.11293135 -0.17212696 0.23750854 -0.18191992 0.2703584 0.14106902 -0.13133943 0.05897109 -0.037071254 -0.016732143 0.023589168 -0.25511917 -0.03315055 -0.11589551 0.3650776 0.060933433 0.1649308 -0.12591803 -0.09687735 0.16080727 -0.13623555 0.2121112 -0.08642332 0.2138323 -0.07360308 0.22257699 0.114092626 0.034809094 -0.13397619 0.005117782 -0.10771293 -0.16208701 -0.061984897 -0.4834816 -0.30129516 -0.21591763 0.12174996 0.056216843 -0.40903127 0.013991074 0.04490959 -0.45886657 -0.1631886 -0.40517655 0.071545646 0.7319971 -0.10693391 0.18717253 0.33522123 0.022711126
127 -0.08464453 -0.095120974 0.12054769 -0.08712621 -0.19843914 -0.03508544 0.093734086 0.09025961 0.00040304317 -0.41732833 -0.08588872 0.13496086 0.090452425 0.14698544 0.13878378 -0.16885723 0.13730729 -0.08881007 0.23492964 0.22982916 -0.050635815 -0.09046077 -0.20673236 0.04972764 -0.09601542 -0.2826425 -0.0041467003 -0.027495138 0.29835007 -0.023807857 0.10435877 -0.23362888 -0.2193323 -0.11247195 0.0022340172 0.13243544 -0.18366848 0.3735204 -0.1989223 0.2082882 0.20625693 -0.005441015 0.06351436 -0.09258158 -0.113959685 -0.26431078 0.027746366 -0.4273149 -0.19327125 -0.0862388 0.05932126 -0.17043658 -0.26728225 0.017960329 0.06837196 -0.53365105 -0.27327874 -0.44462824 0.16931114 0.7097001 -0.15921178 -0.013567686 0.2890602 0.09886512
73 0.041253366 -0.045875978 0.033694483 -0.22240332 -0.07590163 -0.038467206 0.0017782527 0.08372266 -0.21434455 -0.28228152 0.12129181 0.08290172 0.18017136 0.060478028 0.09751224 0.013914909 0.15822476 0.035600405 0.0734989 0.2179544 -0.12990172 -0.031455148 -0.06903404 0.13596852 0.07901731 -0.17449477 -0.11603509 -0.135743 0.3895713 -0.08909283 0.121932074 -0.17324094 -0.14350355 0.00988616 -0.03249327 0.09203956 -0.21913897 0.2644407 -0.16122346 0.18826707 0.17624375 -0.028068963 -0.12286783 0.052485753 -0.053940006 -0.28857973 -0.058670044 -0.5494975 -0.134394 -0.14582959 0.1608944 -0.026939105 -0.3611549 -0.03358644 0.15608537 -0.48083144 -0.24893963 -0.49398646 0.049187567 0.56933784 -0.16119084 0.051675424 0.33676705 0.10856396
